{"learner":{"attributes":{"scikit_learn":"{\"_estimator_type\": \"regressor\"}"},"feature_names":[],"feature_types":[],"gradient_booster":{"model":{"gbtree_model_param":{"num_parallel_tree":"1","num_trees":"100"},"iteration_indptr":[0,1,2,3,4,5,6,7,8,9,10,11,12,13,14,15,16,17,18,19,20,21,22,23,24,25,26,27,28,29,30,31,32,33,34,35,36,37,38,39,40,41,42,43,44,45,46,47,48,49,50,51,52,53,54,55,56,57,58,59,60,61,62,63,64,65,66,67,68,69,70,71,72,73,74,75,76,77,78,79,80,81,82,83,84,85,86,87,88,89,90,91,92,93,94,95,96,97,98,99,100],"tree_info":[0,0,0,0,0,0,0,0,0,0,0,0,0,0,0,0,0,0,0,0,0,0,0,0,0,0,0,0,0,0,0,0,0,0,0,0,0,0,0,0,0,0,0,0,0,0,0,0,0,0,0,0,0,0,0,0,0,0,0,0,0,0,0,0,0,0,0,0,0,0,0,0,0,0,0,0,0,0,0,0,0,0,0,0,0,0,0,0,0,0,0,0,0,0,0,0,0,0,0,0],"trees":[{"base_weights":[-4.4002166E-1,-2.9845968E6,7.9704184E7,-8.276006E6,1.4383494E7,1.979009E7,9.2332376E7,-4.5579035E6,-1.2106532E7,1.7864822E6,2.858195E7,5.5326116E7,1.0131692E7,5.5967348E7,1.14189976E8,-8.448166E6,6.4698725E6,-9.481357E6,-1.5491558E7,-4.825659E6,5.1031955E6,5.0872996E7,2.136481E7,4.281611E7,4.714504E7,2.651757E7,-3.2176175E6,3.8429373E8,4.9278788E7,1.2173457E8,3.3976172E7,-1.2648661E7,-7.273085E6,2.0339764E7,2.4246465E6,-1.2548023E7,-4.642087E6,-1.250515E7,-1.7628558E7,1.7389462E7,-5.2076195E6,1.7000286E7,2.3829625E6,6.293757E7,3.813939E7,2.9476446E7,1.2273721E7,3.330011E7,4.2370812E7,-1.6546519E6,4.125561E7,9.2490856E7,-8.96736E6,2.3166994E8,7.750504E8,2.9768884E7,8.761337E7,1.0529661E8,2.2807603E8,1.2993006E8,3.0123282E7,-4.1139875E6,-3.4931395E6,-1.1001876E6,-2.603668E6,2.0570256E6,8.167504E6,2.6295735E6,-9.342654E5,-4.013324E6,-3.0626468E6,-4.7897816E5,-3.326614E6,-4.342519E6,-2.2590052E6,-5.0212925E5,-5.3031435E6,9.990617E6,2.8228035E6,1.855134E7,-1.5772361E6,1.4585053E7,4.0744142E6,4.831164E6,6.1118356E5,1.3929935E7,2.3142448E7,9.238103E6,1.3448785E7,8.675387E6,2.0344194E7,2.0536309E6,5.49679E6,4.983006E7,1.2153879E7,-1.577896E6,3.6440084E7,1.3748414E7,-2.0282201E6,2.5951E6,3.5445116E7,5.4326275E6,-4.0985882E6,4.073011E7,9.2480104E7,6.644008E7,2.7680013E8,1.3619839E7,7.779588E5,2.9733008E8,2.5142694E7,3.8125964E7,2.6389834E7,1.2150762E8,6.3679144E7,1.2378158E6,1.5503771E7],"categories":[],"categories_nodes":[],"categories_segments":[],"categories_sizes":[],"default_left":[1,1,0,0,1,0,0,1,0,1,0,0,0,0,0,0,0,0,0,0,0,0,0,0,0,0,0,0,0,0,0,1,0,0,0,0,0,0,0,0,0,0,0,0,0,0,0,0,0,0,0,0,0,0,0,0,0,0,0,0,0,0,0,0,0,0,0,0,0,0,0,0,0,0,0,0,0,0,0,0,0,0,0,0,0,0,0,0,0,0,0,0,0,0,0,0,0,0,0,0,0,0,0,0,0,0,0,0,0,0,0,0,0,0,0,0,0],"id":0,"left_children":[1,3,5,7,9,11,13,15,17,19,21,23,25,27,29,31,33,35,37,39,41,43,45,-1,47,49,51,53,55,57,59,61,63,65,67,69,71,73,75,77,79,81,83,85,87,89,91,-1,93,95,97,99,101,103,105,107,109,111,113,-1,115,-1,-1,-1,-1,-1,-1,-1,-1,-1,-1,-1,-1,-1,-1,-1,-1,-1,-1,-1,-1,-1,-1,-1,-1,-1,-1,-1,-1,-1,-1,-1,-1,-1,-1,-1,-1,-1,-1,-1,-1,-1,-1,-1,-1,-1,-1,-1,-1,-1,-1,-1,-1,-1,-1,-1,-1],"loss_changes":[3.2056882E19,1.1937596E19,3.6783062E18,1.4179357E18,5.425252E18,2.9049097E17,3.1865298E18,2.1675819E18,4.356276E17,3.525367E17,2.2930282E18,1.2268261E17,1.4620374E17,3.2970692E18,1.5136537E18,1.8426E17,7.392146E17,4.0986385E17,1.36468085E17,4.5656585E16,3.464039E17,5.3329173E17,7.9415196E17,0E0,4.6208385E16,1.2462925E17,2.0388976E17,1.6096067E18,1.1050375E18,3.9824883E18,3.206521E17,8.573167E15,1.4791867E17,2.7599419E17,3.5831868E17,3.267831E16,2.1037121E17,8.7478794E16,9.646016E15,1.1242225E16,1.7966338E16,2.1466308E17,4.129857E16,4.1580946E17,8.211208E16,1.1993253E17,1.6674314E17,0E0,2.9361118E16,4.679963E16,4.3561517E16,4.4155425E16,4.4609334E16,1.2710286E17,4.494045E17,4.1743275E17,1.6321087E18,7.391709E17,7.702035E17,0E0,1.2083212E17,0E0,0E0,0E0,0E0,0E0,0E0,0E0,0E0,0E0,0E0,0E0,0E0,0E0,0E0,0E0,0E0,0E0,0E0,0E0,0E0,0E0,0E0,0E0,0E0,0E0,0E0,0E0,0E0,0E0,0E0,0E0,0E0,0E0,0E0,0E0,0E0,0E0,0E0,0E0,0E0,0E0,0E0,0E0,0E0,0E0,0E0,0E0,0E0,0E0,0E0,0E0,0E0,0E0,0E0,0E0,0E0],"parents":[2147483647,0,0,1,1,2,2,3,3,4,4,5,5,6,6,7,7,8,8,9,9,10,10,11,11,12,12,13,13,14,14,15,15,16,16,17,17,18,18,19,19,20,20,21,21,22,22,24,24,25,25,26,26,27,27,28,28,29,29,30,30,31,31,32,32,33,33,34,34,35,35,36,36,37,37,38,38,39,39,40,40,41,41,42,42,43,43,44,44,45,45,46,46,48,48,49,49,50,50,51,51,52,52,53,53,54,54,55,55,56,56,57,57,58,58,60,60],"right_children":[2,4,6,8,10,12,14,16,18,20,22,24,26,28,30,32,34,36,38,40,42,44,46,-1,48,50,52,54,56,58,60,62,64,66,68,70,72,74,76,78,80,82,84,86,88,90,92,-1,94,96,98,100,102,104,106,108,110,112,114,-1,116,-1,-1,-1,-1,-1,-1,-1,-1,-1,-1,-1,-1,-1,-1,-1,-1,-1,-1,-1,-1,-1,-1,-1,-1,-1,-1,-1,-1,-1,-1,-1,-1,-1,-1,-1,-1,-1,-1,-1,-1,-1,-1,-1,-1,-1,-1,-1,-1,-1,-1,-1,-1,-1,-1,-1,-1],"split_conditions":[8.093712E2,5E0,5E0,2.00001E0,3.541006E2,2.00001E0,1.367E3,2.1246036E2,2.00001E0,1.7957959E2,2.00001E0,2.00001E0,2.00001E0,2.00001E0,2.00001E0,9.105444E1,2.00001E0,1.6187456E2,2.00001E0,2.00001E0,2.00001E0,2.00001E0,2.00001E0,4.281611E7,2.00001E0,3.4E2,1.6E2,2.4281135E3,1.1128854E3,1.9222566E3,2.00001E0,3E0,2.00001E0,2.984562E2,2.00001E0,1.2393521E2,2.00001E0,1.6187456E2,2.00001E0,1.503E3,2.00001E0,2.00001E0,2.00001E0,6E0,4.552722E2,6.576141E2,1.772E3,3.330011E7,2.00001E0,7E0,7.216E3,2.4281135E3,2.00001E0,1.1128854E3,9E0,1.3E1,2.00001E0,1.514E3,2.00001E0,1.2993006E8,2.4281135E3,-4.1139875E6,-3.4931395E6,-1.1001876E6,-2.603668E6,2.0570256E6,8.167504E6,2.6295735E6,-9.342654E5,-4.013324E6,-3.0626468E6,-4.7897816E5,-3.326614E6,-4.342519E6,-2.2590052E6,-5.0212925E5,-5.3031435E6,9.990617E6,2.8228035E6,1.855134E7,-1.5772361E6,1.4585053E7,4.0744142E6,4.831164E6,6.1118356E5,1.3929935E7,2.3142448E7,9.238103E6,1.3448785E7,8.675387E6,2.0344194E7,2.0536309E6,5.49679E6,4.983006E7,1.2153879E7,-1.577896E6,3.6440084E7,1.3748414E7,-2.0282201E6,2.5951E6,3.5445116E7,5.4326275E6,-4.0985882E6,4.073011E7,9.2480104E7,6.644008E7,2.7680013E8,1.3619839E7,7.779588E5,2.9733008E8,2.5142694E7,3.8125964E7,2.6389834E7,1.2150762E8,6.3679144E7,1.2378158E6,1.5503771E7],"split_indices":[3,2,2,6,3,1481,0,3,1480,3,1480,559,6,559,6,3,1480,3,5,351,1480,351,1481,0,947,0,0,3,3,3,723,2,1480,3,1481,3,5,3,4,0,447,351,665,2,3,3,0,0,707,1,0,3,4,3,1,2,902,0,559,0,3,0,0,0,0,0,0,0,0,0,0,0,0,0,0,0,0,0,0,0,0,0,0,0,0,0,0,0,0,0,0,0,0,0,0,0,0,0,0,0,0,0,0,0,0,0,0,0,0,0,0,0,0,0,0,0,0],"split_type":[0,0,0,0,0,0,0,0,0,0,0,0,0,0,0,0,0,0,0,0,0,0,0,0,0,0,0,0,0,0,0,0,0,0,0,0,0,0,0,0,0,0,0,0,0,0,0,0,0,0,0,0,0,0,0,0,0,0,0,0,0,0,0,0,0,0,0,0,0,0,0,0,0,0,0,0,0,0,0,0,0,0,0,0,0,0,0,0,0,0,0,0,0,0,0,0,0,0,0,0,0,0,0,0,0,0,0,0,0,0,0,0,0,0,0,0,0],"sum_hessian":[1.34756E5,1.29893E5,4.863E3,9.9561E4,3.0332E4,8.47E2,4.016E3,5.0523E4,4.9038E4,1.6073E4,1.4259E4,1.8E2,6.67E2,1.509E3,2.507E3,3.7348E4,1.3175E4,2.7621E4,2.1417E4,5.369E3,1.0704E4,3.486E3,1.0773E4,1.4E1,1.66E2,2.99E2,3.68E2,2.9E1,1.48E3,2.291E3,2.16E2,8.162E3,2.9186E4,2.974E3,1.0201E4,1.6906E4,1.0715E4,8.936E3,1.2481E4,9E1,5.279E3,1.991E3,8.713E3,1.788E3,1.698E3,5.692E3,5.081E3,1E1,1.56E2,1.03E2,1.96E2,2E1,3.48E2,2.2E1,7E0,9.82E2,4.98E2,1.986E3,3.05E2,1E0,2.15E2,3.957E3,4.205E3,8.188E3,2.0998E4,1.006E3,1.968E3,4.756E3,5.445E3,1.2476E4,4.43E3,7.278E3,3.437E3,6.4E3,2.536E3,3.8E1,1.2443E4,2.9E1,6.1E1,3E0,5.276E3,1.93E2,1.798E3,2.13E2,8.5E3,8.29E2,9.59E2,8.12E2,8.86E2,5.612E3,8E1,2.679E3,2.402E3,1E0,1.55E2,1.01E2,2E0,1.79E2,1.7E1,5E0,1.5E1,5.1E1,2.97E2,1.1E1,1.1E1,2E0,5E0,6.23E2,3.59E2,1E0,4.97E2,8.77E2,1.109E3,2.3E1,2.82E2,9.8E1,1.17E2],"tree_param":{"num_deleted":"0","num_feature":"1483","num_nodes":"117","size_leaf_vector":"1"}},{"base_weights":[1.1585647E4,-2.0882359E6,5.6087696E7,-5.793432E6,1.0073397E7,1.4117281E7,6.493381E7,-7.1399915E6,3.426132E5,1.9571528E5,1.9145784E7,3.9491264E7,7.2208615E6,3.6530828E7,8.060278E7,-4.7808625E6,-8.9665E6,1.065509E7,-1.4574961E6,-3.3279362E6,2.347712E6,3.4944776E7,1.4001461E7,1.0275867E8,3.357209E7,6.0024756E7,5.1598085E6,2.2123322E7,8.126301E7,2.0727579E8,7.5586904E7,-6.1919405E6,1.022965E7,-7.3864675E6,-1.1530301E7,1.2765926E7,-1.6063252E6,-4.905375E6,2.0264664E6,1.2316711E7,-3.5930728E6,8.0238445E6,1.1674674E6,4.3803892E7,2.6040222E7,2.0014728E7,7.9453795E6,3.6919144E7,1.8591676E7,3.7192618E6,3.981856E7,1.8878686E8,4.061993E7,1.8622666E7,-6.27333E6,1.6396878E7,8.219839E7,1.20923816E8,2.8104586E7,1.29538E8,5.4558054E8,8.221026E7,1.224837E7,-2.151935E6,-9.083967E5,-1.1664987E5,5.482808E6,-2.6580172E6,-6.6720225E5,-2.9358248E6,-3.7074752E6,2.835496E6,5.8159095E6,-3.1143658E6,1.2900679E6,-2.2699888E6,-1.2407082E6,1.7802864E6,7.195127E4,-1.887025E6,4.985436E6,-2.203268E6,-8.319055E5,2.7508222E6,-2.7198368E6,8.365452E5,-2.4654139E5,1.1462277E7,2.0602676E7,1.4541826E7,7.239677E6,7.271987E6,4.56093E6,1.7806331E6,5.342204E6,3.5072992E6,-4.854136E6,2.5473078E7,1.0804323E7,1.7940796E7,6.7013296E7,3.6731738E6,2.2885306E7,3.9722822E6,1.8782436E7,1.8004266E7,-2.1647508E6,2.168515E7,3.8524132E6,4.9263852E7,1.8587602E7,2.939042E7,1.1879495E8,3.307123E7,6.810319E6,2.557948E7,5.396478E7,6.0665324E7,1.9862638E8,2.1764176E7,4.562959E7,1.1044055E8,2.754144E6],"categories":[],"categories_nodes":[],"categories_segments":[],"categories_sizes":[],"default_left":[1,1,0,1,1,0,0,0,0,0,0,0,0,0,0,1,0,0,1,0,0,0,0,0,0,0,0,0,0,0,0,0,0,0,0,0,0,1,0,0,0,0,0,0,0,0,0,0,0,0,0,0,0,0,0,0,0,0,0,0,0,0,0,0,0,0,0,0,0,0,0,0,0,0,0,0,0,0,0,0,0,0,0,0,0,0,0,0,0,0,0,0,0,0,0,0,0,0,0,0,0,0,0,0,0,0,0,0,0,0,0,0,0,0,0,0,0,0,0,0,0,0,0],"id":1,"left_children":[1,3,5,7,9,11,13,15,17,19,21,23,25,27,29,31,33,35,37,39,41,43,45,47,49,51,53,55,57,59,61,63,65,67,69,71,73,75,77,79,81,83,85,87,89,91,93,-1,-1,95,97,99,101,103,105,107,109,111,113,115,117,119,121,-1,-1,-1,-1,-1,-1,-1,-1,-1,-1,-1,-1,-1,-1,-1,-1,-1,-1,-1,-1,-1,-1,-1,-1,-1,-1,-1,-1,-1,-1,-1,-1,-1,-1,-1,-1,-1,-1,-1,-1,-1,-1,-1,-1,-1,-1,-1,-1,-1,-1,-1,-1,-1,-1,-1,-1,-1,-1,-1,-1],"loss_changes":[1.5867731E19,5.8532425E18,1.8049649E18,8.226384E17,2.7182624E18,1.4810604E17,1.7848031E18,3.517629E17,3.3263783E17,1.1013407E17,1.2845512E18,6.433306E16,7.238982E16,9.198072E17,1.6286879E18,7.547426E17,1.8632077E17,6.8943846E16,1.8326928E17,2.2887116E16,6.0397535E16,3.051755E17,4.3425734E17,4.7960697E15,3.0993171E16,5.4796644E16,9.924305E16,3.712221E17,7.3029205E17,2.5066353E18,1.0439995E18,1.0108525E17,2.6162529E17,2.1658427E17,2.5214825E16,4.9668857E16,2.0361753E16,1.5675205E16,5.2983653E16,7.4677874E15,1.6640065E16,3.0467596E16,2.407747E16,2.680997E17,8.182043E16,1.2130802E17,1.177356E17,0E0,0E0,4.948223E15,2.0613936E16,2.6422639E13,2.2342308E16,6.9239434E16,2.2237311E16,1.9579084E17,1.4586073E17,1.2177308E18,6.40685E16,1.6520396E17,5.86192E17,1.5118395E18,2.5538202E17,0E0,0E0,0E0,0E0,0E0,0E0,0E0,0E0,0E0,0E0,0E0,0E0,0E0,0E0,0E0,0E0,0E0,0E0,0E0,0E0,0E0,0E0,0E0,0E0,0E0,0E0,0E0,0E0,0E0,0E0,0E0,0E0,0E0,0E0,0E0,0E0,0E0,0E0,0E0,0E0,0E0,0E0,0E0,0E0,0E0,0E0,0E0,0E0,0E0,0E0,0E0,0E0,0E0,0E0,0E0,0E0,0E0,0E0,0E0,0E0],"parents":[2147483647,0,0,1,1,2,2,3,3,4,4,5,5,6,6,7,7,8,8,9,9,10,10,11,11,12,12,13,13,14,14,15,15,16,16,17,17,18,18,19,19,20,20,21,21,22,22,23,23,24,24,25,25,26,26,27,27,28,28,29,29,30,30,31,31,32,32,33,33,34,34,35,35,36,36,37,37,38,38,39,39,40,40,41,41,42,42,43,43,44,44,45,45,46,46,49,49,50,50,51,51,52,52,53,53,54,54,55,55,56,56,57,57,58,58,59,59,60,60,61,61,62,62],"right_children":[2,4,6,8,10,12,14,16,18,20,22,24,26,28,30,32,34,36,38,40,42,44,46,48,50,52,54,56,58,60,62,64,66,68,70,72,74,76,78,80,82,84,86,88,90,92,94,-1,-1,96,98,100,102,104,106,108,110,112,114,116,118,120,122,-1,-1,-1,-1,-1,-1,-1,-1,-1,-1,-1,-1,-1,-1,-1,-1,-1,-1,-1,-1,-1,-1,-1,-1,-1,-1,-1,-1,-1,-1,-1,-1,-1,-1,-1,-1,-1,-1,-1,-1,-1,-1,-1,-1,-1,-1,-1,-1,-1,-1,-1,-1,-1,-1,-1,-1,-1,-1,-1,-1],"split_conditions":[8.093712E2,5E0,5E0,4E0,2.984562E2,2.00001E0,2.00001E0,2.00001E0,2.00001E0,1.9728462E2,2.00001E0,2.00001E0,1.6E2,3.286E3,2.00001E0,3.3386627E2,2.00001E0,2.00001E0,1.8463817E2,2.00001E0,2.00001E0,2.00001E0,2.00001E0,4E0,3E0,3E0,2.00001E0,2.4281135E3,3.327E3,2.4281135E3,2.00001E0,1.9728462E2,2.00001E0,1.8463817E2,2.00001E0,2.5798758E2,1.485E3,1.1128876E2,2.00001E0,2.00001E0,1.1128876E2,2.00001E0,2.00001E0,5.564427E2,2.00001E0,2.00001E0,5.564427E2,3.6919144E7,1.8591676E7,2.00001E0,2.00001E0,3E0,5E0,7E0,2.00001E0,2.00001E0,2.00001E0,2.4281135E3,2.00001E0,1.1128854E3,8E0,1.9222566E3,2.00001E0,-2.151935E6,-9.083967E5,-1.1664987E5,5.482808E6,-2.6580172E6,-6.6720225E5,-2.9358248E6,-3.7074752E6,2.835496E6,5.8159095E6,-3.1143658E6,1.2900679E6,-2.2699888E6,-1.2407082E6,1.7802864E6,7.195127E4,-1.887025E6,4.985436E6,-2.203268E6,-8.319055E5,2.7508222E6,-2.7198368E6,8.365452E5,-2.4654139E5,1.1462277E7,2.0602676E7,1.4541826E7,7.239677E6,7.271987E6,4.56093E6,1.7806331E6,5.342204E6,3.5072992E6,-4.854136E6,2.5473078E7,1.0804323E7,1.7940796E7,6.7013296E7,3.6731738E6,2.2885306E7,3.9722822E6,1.8782436E7,1.8004266E7,-2.1647508E6,2.168515E7,3.8524132E6,4.9263852E7,1.8587602E7,2.939042E7,1.1879495E8,3.307123E7,6.810319E6,2.557948E7,5.396478E7,6.0665324E7,1.9862638E8,2.1764176E7,4.562959E7,1.1044055E8,2.754144E6],"split_indices":[3,2,2,2,3,1481,1479,6,351,3,1480,559,0,0,559,3,5,6,3,351,1480,351,1481,2,1,1,6,3,0,3,6,3,1479,3,1480,3,0,3,1480,1479,3,6,1481,3,1008,351,3,0,0,4,947,2,1,1,1336,419,445,3,1336,3,2,3,723,0,0,0,0,0,0,0,0,0,0,0,0,0,0,0,0,0,0,0,0,0,0,0,0,0,0,0,0,0,0,0,0,0,0,0,0,0,0,0,0,0,0,0,0,0,0,0,0,0,0,0,0,0,0,0,0,0,0,0,0],"split_type":[0,0,0,0,0,0,0,0,0,0,0,0,0,0,0,0,0,0,0,0,0,0,0,0,0,0,0,0,0,0,0,0,0,0,0,0,0,0,0,0,0,0,0,0,0,0,0,0,0,0,0,0,0,0,0,0,0,0,0,0,0,0,0,0,0,0,0,0,0,0,0,0,0,0,0,0,0,0,0,0,0,0,0,0,0,0,0,0,0,0,0,0,0,0,0,0,0,0,0,0,0,0,0,0,0,0,0,0,0,0,0,0,0,0,0,0,0,0,0,0,0,0,0],"sum_hessian":[1.34756E5,1.29893E5,4.863E3,9.9561E4,3.0332E4,8.47E2,4.016E3,8.1644E4,1.7917E4,1.4522E4,1.581E4,1.8E2,6.67E2,1.429E3,2.587E3,3.5629E4,4.6015E4,2.662E3,1.5255E4,5.506E3,9.016E3,3.882E3,1.1928E4,1.4E1,1.66E2,2.4E1,6.43E2,1.082E3,3.47E2,9.7E1,2.49E3,3.2568E4,3.061E3,2.8472E4,1.7543E4,2.271E3,3.91E2,7.667E3,7.588E3,9.1E1,5.415E3,1.551E3,7.465E3,1.944E3,1.938E3,5.984E3,5.944E3,8E0,6E0,2.9E1,1.37E2,2E0,2.2E1,2.95E2,3.48E2,9.89E2,9.3E1,1.98E2,1.49E2,8E1,1.7E1,2.254E3,2.36E2,2.4858E4,7.71E3,1.32E3,1.741E3,2.2149E4,6.323E3,5.651E3,1.1892E4,1.515E3,7.56E2,1.57E2,2.34E2,1.718E3,5.949E3,2.38E3,5.208E3,1.7E1,7.4E1,9.7E2,4.445E3,1.454E3,9.7E1,4.113E3,3.352E3,1.589E3,3.55E2,1.5E2,1.788E3,3.184E3,2.8E3,4.939E3,1.005E3,2.1E1,8E0,9E0,1.28E2,1E0,1E0,1.3E1,9E0,2.64E2,3.1E1,4E0,3.44E2,5.8E1,9.31E2,1.7E1,7.6E1,1.84E2,1.4E1,8E0,1.41E2,4.4E1,3.6E1,5E0,1.2E1,1.982E3,2.72E2,1E0,2.35E2],"tree_param":{"num_deleted":"0","num_feature":"1483","num_nodes":"123","size_leaf_vector":"1"}},{"base_weights":[1.6364956E4,-1.4612185E6,3.9475496E7,-4.0554272E6,7.0538005E6,2.6343596E7,5.6026172E7,-4.998088E6,2.401175E5,6.130254E5,1.391509E7,1.2390077E8,2.3865244E7,8.636572E7,4.0346896E7,-7.2593325E6,-3.8158348E6,7.461126E6,-1.0203561E6,-2.0112852E6,2.7196595E6,2.479683E7,1.0445518E7,9.403927E7,3.323744E8,1.3484808E7,4.063294E7,4.720387E7,1.0234697E8,3.166754E7,1.4874389E8,-6.4765475E6,-7.9850395E6,-7.8002765E6,-3.2173515E6,-1.1698558E7,8.197714E6,-3.4521078E6,1.406116E6,2.9346304E7,-2.0876759E6,9.948991E6,1.2140506E6,1.8796764E7,3.5633348E7,4.337473E6,1.3328627E7,-2.5663976E7,1.0538801E8,1.3899621E8,4.8342744E7,3.656628E7,3.5924908E6,6.233459E7,1.9233998E7,-4.5132084E7,5.2912604E7,1.1331775E8,6.6485864E7,4.8998252E7,1.856388E7,5.3947936E8,1.1532932E8,-2.391431E6,-1.7588181E6,-1.9611614E6,-2.4946128E6,-2.6035978E6,-1.7204854E6,-1.221829E6,3.7934597E5,-3.217978E6,-4.243953E6,-1.9427134E6,2.6951278E6,-1.7209775E6,-9.021608E5,-1.9667276E6,6.4731706E5,3.987785E7,4.3694035E6,-1.4718394E6,-3.961639E5,2.0314346E6,6.2950555E6,7.5495406E5,-1.1662065E5,6.178066E6,5.2074053E5,4.5878815E6,1.257596E7,7.195813E6,1.0819134E6,5.6979055E6,3.1633768E6,9.765768E6,-1.3145339E7,2.2830368E7,4.9912816E7,5.859597E5,1.3142415E7,6.4863835E6,-3.530351E5,9.555671E6,3.2234322E7,-1.3269472E6,1.0452173E7,6.4259915E6,-1.7753918E7,4.3424828E7,1.5097877E7,2.9569106E7,4.1291652E7,6.339157E7,1.6403019E7,1.1130398E7,2.956129E7,5.8506052E7,5.207379E6,4.1019E7,1.9528224E8,1.95609E7,7.1494936E7],"categories":[],"categories_nodes":[],"categories_segments":[],"categories_sizes":[],"default_left":[1,1,1,1,1,0,0,0,0,1,0,0,0,0,0,0,0,0,1,0,0,0,0,0,0,0,0,0,0,0,0,1,0,0,0,0,0,0,0,0,0,0,0,0,0,0,0,0,0,0,0,0,0,0,0,0,0,0,0,0,0,0,0,0,0,0,0,0,0,0,0,0,0,0,0,0,0,0,0,0,0,0,0,0,0,0,0,0,0,0,0,0,0,0,0,0,0,0,0,0,0,0,0,0,0,0,0,0,0,0,0,0,0,0,0,0,0,0,0,0,0,0,0],"id":2,"left_children":[1,3,5,7,9,11,13,15,17,19,21,23,25,27,29,31,33,35,37,39,41,43,45,47,49,51,53,55,57,59,61,63,65,67,69,71,73,75,77,79,81,83,85,87,89,91,93,95,97,-1,-1,99,101,103,105,107,109,111,113,115,117,119,121,-1,-1,-1,-1,-1,-1,-1,-1,-1,-1,-1,-1,-1,-1,-1,-1,-1,-1,-1,-1,-1,-1,-1,-1,-1,-1,-1,-1,-1,-1,-1,-1,-1,-1,-1,-1,-1,-1,-1,-1,-1,-1,-1,-1,-1,-1,-1,-1,-1,-1,-1,-1,-1,-1,-1,-1,-1,-1,-1,-1],"loss_changes":[7.856952E18,2.869353E18,1.05567465E18,4.0315188E17,1.3404681E18,6.532365E17,1.01975086E18,2.1823904E17,1.6309528E17,8.650931E16,5.542487E17,3.8584103E17,4.6035246E17,4.5329456E17,1.3312483E18,1.5871313E16,1.2782874E17,3.7678253E16,9.002408E16,1.6752597E16,9.446576E16,2.3015032E17,1.9608415E17,8.4213485E16,1.0471687E17,3.7364353E17,4.687662E17,1.15191985E17,1.9665315E17,2.979484E17,1.308689E18,1.2331607E16,6.9001914E15,1.2651015E16,1.7872228E17,8.380877E13,2.964285E16,7.7275567E15,4.5715516E16,2.409231E16,1.5024579E16,5.231167E16,1.5000164E16,7.0072082E16,1.6098706E17,5.123955E16,1.1911477E17,7.7674967E15,8.55765E16,0E0,0E0,1.2298842E17,9.864936E16,6.869056E17,1.88819E17,1.342132E16,4.0694746E16,1.2853236E17,2.0051024E17,3.299255E17,1.5642587E17,2.70125E17,5.886205E17,0E0,0E0,0E0,0E0,0E0,0E0,0E0,0E0,0E0,0E0,0E0,0E0,0E0,0E0,0E0,0E0,0E0,0E0,0E0,0E0,0E0,0E0,0E0,0E0,0E0,0E0,0E0,0E0,0E0,0E0,0E0,0E0,0E0,0E0,0E0,0E0,0E0,0E0,0E0,0E0,0E0,0E0,0E0,0E0,0E0,0E0,0E0,0E0,0E0,0E0,0E0,0E0,0E0,0E0,0E0,0E0,0E0,0E0,0E0,0E0],"parents":[2147483647,0,0,1,1,2,2,3,3,4,4,5,5,6,6,7,7,8,8,9,9,10,10,11,11,12,12,13,13,14,14,15,15,16,16,17,17,18,18,19,19,20,20,21,21,22,22,23,23,24,24,25,25,26,26,27,27,28,28,29,29,30,30,31,31,32,32,33,33,34,34,35,35,36,36,37,37,38,38,39,39,40,40,41,41,42,42,43,43,44,44,45,45,46,46,47,47,48,48,51,51,52,52,53,53,54,54,55,55,56,56,57,57,58,58,59,59,60,60,61,61,62,62],"right_children":[2,4,6,8,10,12,14,16,18,20,22,24,26,28,30,32,34,36,38,40,42,44,46,48,50,52,54,56,58,60,62,64,66,68,70,72,74,76,78,80,82,84,86,88,90,92,94,96,98,-1,-1,100,102,104,106,108,110,112,114,116,118,120,122,-1,-1,-1,-1,-1,-1,-1,-1,-1,-1,-1,-1,-1,-1,-1,-1,-1,-1,-1,-1,-1,-1,-1,-1,-1,-1,-1,-1,-1,-1,-1,-1,-1,-1,-1,-1,-1,-1,-1,-1,-1,-1,-1,-1,-1,-1,-1,-1,-1,-1,-1,-1,-1,-1,-1,-1,-1,-1,-1,-1],"split_conditions":[8.093712E2,5E0,6E0,4E0,3.085734E2,4.8E1,2.00001E0,3E0,2.00001E0,2.1751894E2,2.00001E0,2.4281135E3,1.1128854E3,1.483E3,2.4281135E3,2.00001E0,2.00001E0,2.00001E0,1.7957959E2,3.288077E1,2.00001E0,7E0,1.446E3,2.00001E0,2.00001E0,2.00001E0,2.00001E0,2.00001E0,2.00001E0,2.00001E0,1.45E2,8.599586E1,2.00001E0,6.686E3,2.5798758E2,1.485E3,2.00001E0,4E0,2.00001E0,2.00001E0,5E0,2.984562E2,2.00001E0,1.1716E4,4.552722E2,2.00001E0,1.612E3,5E0,1.1128854E3,1.3899621E8,4.8342744E7,4.11E2,1.011714E3,1.1E1,2.4281135E3,5E0,5E0,1.485E3,2.00001E0,1.1128854E3,2.00001E0,9E0,3.286E3,-2.391431E6,-1.7588181E6,-1.9611614E6,-2.4946128E6,-2.6035978E6,-1.7204854E6,-1.221829E6,3.7934597E5,-3.217978E6,-4.243953E6,-1.9427134E6,2.6951278E6,-1.7209775E6,-9.021608E5,-1.9667276E6,6.4731706E5,3.987785E7,4.3694035E6,-1.4718394E6,-3.961639E5,2.0314346E6,6.2950555E6,7.5495406E5,-1.1662065E5,6.178066E6,5.2074053E5,4.5878815E6,1.257596E7,7.195813E6,1.0819134E6,5.6979055E6,3.1633768E6,9.765768E6,-1.3145339E7,2.2830368E7,4.9912816E7,5.859597E5,1.3142415E7,6.4863835E6,-3.530351E5,9.555671E6,3.2234322E7,-1.3269472E6,1.0452173E7,6.4259915E6,-1.7753918E7,4.3424828E7,1.5097877E7,2.9569106E7,4.1291652E7,6.339157E7,1.6403019E7,1.1130398E7,2.956129E7,5.8506052E7,5.207379E6,4.1019E7,1.9528224E8,1.95609E7,7.1494936E7],"split_indices":[3,2,2,2,3,0,1480,2,351,3,1480,3,3,0,3,1480,10,10,3,3,1480,1,0,325,559,1481,6,1297,351,1481,0,3,1481,0,3,0,1479,1,10,447,1,3,1481,0,3,665,0,2,3,0,0,0,3,1,3,1,1,0,746,3,1265,1,0,0,0,0,0,0,0,0,0,0,0,0,0,0,0,0,0,0,0,0,0,0,0,0,0,0,0,0,0,0,0,0,0,0,0,0,0,0,0,0,0,0,0,0,0,0,0,0,0,0,0,0,0,0,0,0,0,0,0,0,0],"split_type":[0,0,0,0,0,0,0,0,0,0,0,0,0,0,0,0,0,0,0,0,0,0,0,0,0,0,0,0,0,0,0,0,0,0,0,0,0,0,0,0,0,0,0,0,0,0,0,0,0,0,0,0,0,0,0,0,0,0,0,0,0,0,0,0,0,0,0,0,0,0,0,0,0,0,0,0,0,0,0,0,0,0,0,0,0,0,0,0,0,0,0,0,0,0,0,0,0,0,0,0,0,0,0,0,0,0,0,0,0,0,0,0,0,0,0,0,0,0,0,0,0,0,0],"sum_hessian":[1.34756E5,1.29893E5,4.863E3,9.9561E4,3.0332E4,2.713E3,2.15E3,8.1644E4,1.7917E4,1.5646E4,1.4686E4,6.6E1,2.647E3,7.31E2,1.419E3,2.8029E4,5.3615E4,2.662E3,1.5255E4,6.967E3,8.679E3,3.549E3,1.1137E4,5.9E1,7E0,1.636E3,1.011E3,2.13E2,5.18E2,1.315E3,1.04E2,1.3489E4,1.454E4,7E3,4.6615E4,9.8E1,2.564E3,7.619E3,7.636E3,1.6E1,6.951E3,1.495E3,7.184E3,2.286E3,1.263E3,3.572E3,7.565E3,5E0,5.4E1,3E0,4E0,4.9E2,1.146E3,5.01E2,5.1E2,1.2E1,2.01E2,3.95E2,1.23E2,5.65E2,7.5E2,7E0,9.7E1,3.923E3,9.566E3,2.705E3,1.1835E4,4.909E3,2.091E3,3.9144E4,7.471E3,7.4E1,2.4E1,1.3E2,2.434E3,1.24E3,6.379E3,6.58E2,6.978E3,1E0,1.5E1,1.486E3,5.465E3,1.162E3,3.33E2,3.963E3,3.221E3,2.068E3,2.18E2,2.99E2,9.64E2,1.27E2,3.445E3,2.491E3,5.074E3,1E0,4E0,3.8E1,1.6E1,8.5E1,4.05E2,2.39E2,9.07E2,3E2,2.01E2,2.03E2,3.07E2,2E0,1E1,4E0,1.97E2,2.49E2,1.46E2,8E0,1.15E2,4.57E2,1.08E2,4E0,7.46E2,2E0,5E0,7E1,2.7E1],"tree_param":{"num_deleted":"0","num_feature":"1483","num_nodes":"123","size_leaf_vector":"1"}},{"base_weights":[1.9061818E4,-1.4191488E6,2.1301878E7,-3.63076E6,2.4589572E6,2.6262988E7,-1.1622242E6,-7.245873E6,-3.3033972E6,-6.8785694E5,6.8880325E6,2.2346162E7,6.754371E7,-8.0384365E6,2.3211298E7,-6.531355E6,-8.802295E6,-5.111062E6,-2.478946E6,-1.6997351E6,8.550935E5,1.2259416E7,4.286373E6,6.4181595E6,3.2538926E7,2.165938E8,6.526488E7,2.3784304E7,-8.871174E6,9.230666E7,2.1464496E7,-3.4049778E5,-6.581723E6,7.174751E6,-8.829315E6,-5.824955E6,-4.329021E6,-5.642244E6,-1.8313989E6,4.686845E6,-1.9899995E6,-2.5383682E6,1.5219865E6,1.0200191E7,1.8643892E7,2.9455986E7,3.9702228E6,3.4741852E7,1.9270825E6,2.013139E7,3.903856E7,1.9217602E8,5.568134E7,1.5162212E7,2.3457862E7,-1.0175676E7,3.1257535E6,1.3712718E8,1.7532112E7,-8.8924856E5,6.507024E5,-8.152996E5,-1.9988369E6,3.2274794E5,-2.671808E6,-1.5400425E6,-1.8651058E6,-7.038491E5,-1.3775531E6,1.055986E6,-1.7284021E6,-7.0474706E5,1.1456884E6,1.8989628E6,-2.1114635E6,1.8989965E6,-6.3459294E5,-1.4757126E6,-3.9695466E5,2.9928818E6,3.8905753E5,5.014212E5,3.339535E6,7.471192E6,4.0974642E6,8.053427E6,1.8644548E7,-2.9056642E6,1.3557395E6,1.95423E7,6.97453E6,1.0849552E7,9.8477164E4,1.2101135E7,5.130438E6,1.5201499E7,8.3413955E6,2.7880138E7,9.58008E7,9.450604E7,1.5696653E7,7.723744E6,-1.0604372E6,-2.7679402E6,-8.871624E6,3.748872E5,1.6603495E7,1.3985459E7,7.09243E7,6.877028E7,4.6608825E6],"categories":[],"categories_nodes":[],"categories_segments":[],"categories_sizes":[],"default_left":[1,1,0,0,1,0,0,0,0,1,0,0,0,0,0,0,0,0,0,0,0,0,0,0,0,0,0,0,0,0,0,1,0,0,0,0,0,0,1,0,0,0,0,0,0,0,0,0,0,0,0,0,0,0,0,1,1,0,0,0,0,0,0,0,0,0,0,0,0,0,0,0,0,0,0,0,0,0,0,0,0,0,0,0,0,0,0,0,0,0,0,0,0,0,0,0,0,0,0,0,0,0,0,0,0,0,0,0,0,0,0],"id":3,"left_children":[1,3,5,7,9,11,13,15,17,19,21,23,25,27,29,31,33,35,37,39,41,43,45,47,49,-1,51,53,55,-1,57,59,61,-1,63,65,67,69,71,73,75,77,79,81,83,85,87,89,91,93,95,97,99,101,-1,103,105,107,109,-1,-1,-1,-1,-1,-1,-1,-1,-1,-1,-1,-1,-1,-1,-1,-1,-1,-1,-1,-1,-1,-1,-1,-1,-1,-1,-1,-1,-1,-1,-1,-1,-1,-1,-1,-1,-1,-1,-1,-1,-1,-1,-1,-1,-1,-1,-1,-1,-1,-1,-1,-1],"loss_changes":[4.1248305E18,1.08264924E18,9.5067266E17,9.510913E16,6.389405E17,1.1282144E18,2.5895713E17,7.3645976E15,1.0984417E17,4.184683E16,2.6605007E17,1.0360734E18,8.551463E17,3.2143484E16,1.6235057E17,1.4252763E15,2.0650031E15,1.2864698E16,1.0369116E17,3.0016723E16,2.402868E16,8.149257E16,1.0197622E17,3.1692516E17,3.1308236E17,0E0,7.23919E17,1.3357009E16,1.8420574E16,0E0,1.5178325E17,2.5662505E14,1.4043512E15,0E0,1.6021946E15,3.2395392E15,5.7332316E15,9.406597E15,1.2295387E17,1.3606853E16,1.6156688E16,5.038817E15,1.6875019E16,3.732457E16,4.6913E16,1.1905091E16,9.503022E16,1.1762761E17,1.1779016E17,8.134754E16,3.3223036E17,5.0034775E17,4.739809E17,5.6316905E15,0E0,1.9243068E16,1.1295365E16,8.7828954E16,1.3544859E17,0E0,0E0,0E0,0E0,0E0,0E0,0E0,0E0,0E0,0E0,0E0,0E0,0E0,0E0,0E0,0E0,0E0,0E0,0E0,0E0,0E0,0E0,0E0,0E0,0E0,0E0,0E0,0E0,0E0,0E0,0E0,0E0,0E0,0E0,0E0,0E0,0E0,0E0,0E0,0E0,0E0,0E0,0E0,0E0,0E0,0E0,0E0,0E0,0E0,0E0,0E0,0E0],"parents":[2147483647,0,0,1,1,2,2,3,3,4,4,5,5,6,6,7,7,8,8,9,9,10,10,11,11,12,12,13,13,14,14,15,15,16,16,17,17,18,18,19,19,20,20,21,21,22,22,23,23,24,24,26,26,27,27,28,28,30,30,31,31,32,32,34,34,35,35,36,36,37,37,38,38,39,39,40,40,41,41,42,42,43,43,44,44,45,45,46,46,47,47,48,48,49,49,50,50,51,51,52,52,53,53,55,55,56,56,57,57,58,58],"right_children":[2,4,6,8,10,12,14,16,18,20,22,24,26,28,30,32,34,36,38,40,42,44,46,48,50,-1,52,54,56,-1,58,60,62,-1,64,66,68,70,72,74,76,78,80,82,84,86,88,90,92,94,96,98,100,102,-1,104,106,108,110,-1,-1,-1,-1,-1,-1,-1,-1,-1,-1,-1,-1,-1,-1,-1,-1,-1,-1,-1,-1,-1,-1,-1,-1,-1,-1,-1,-1,-1,-1,-1,-1,-1,-1,-1,-1,-1,-1,-1,-1,-1,-1,-1,-1,-1,-1,-1,-1,-1,-1,-1,-1],"split_conditions":[5.564427E2,4E0,2.00001E0,2.00001E0,2.5798758E2,1.9222566E3,2.4281135E3,2.7063403E2,1.0875947E2,2.1751894E2,2.00001E0,1.387E3,2.00001E0,2.00001E0,2.00001E0,2.00001E0,2.00001E0,8.093728E1,2.00001E0,2.00001E0,2.00001E0,7E0,2.00001E0,2.00001E0,6E0,2.165938E8,2.00001E0,1.061E4,1.9222566E3,9.230666E7,2.00001E0,3E0,2.00001E0,7.174751E6,2.00001E0,2.00001E0,2.00001E0,2.00001E0,3.035148E2,2.00001E0,2.00001E0,3.035E3,2.00001E0,2.00001E0,2.00001E0,7E0,2.00001E0,4.8E1,2.00001E0,1.457E3,2.00001E0,2.4281135E3,2.00001E0,2.00001E0,2.3457862E7,5E0,7E0,1.1E1,2.00001E0,-8.8924856E5,6.507024E5,-8.152996E5,-1.9988369E6,3.2274794E5,-2.671808E6,-1.5400425E6,-1.8651058E6,-7.038491E5,-1.3775531E6,1.055986E6,-1.7284021E6,-7.0474706E5,1.1456884E6,1.8989628E6,-2.1114635E6,1.8989965E6,-6.3459294E5,-1.4757126E6,-3.9695466E5,2.9928818E6,3.8905753E5,5.014212E5,3.339535E6,7.471192E6,4.0974642E6,8.053427E6,1.8644548E7,-2.9056642E6,1.3557395E6,1.95423E7,6.97453E6,1.0849552E7,9.8477164E4,1.2101135E7,5.130438E6,1.5201499E7,8.3413955E6,2.7880138E7,9.58008E7,9.450604E7,1.5696653E7,7.723744E6,-1.0604372E6,-2.7679402E6,-8.871624E6,3.748872E5,1.6603495E7,1.3985459E7,7.09243E7,6.877028E7,4.6608825E6],"split_indices":[3,2,6,7,3,3,3,3,3,3,351,0,902,8,723,717,947,3,10,351,1482,1,1008,1481,2,0,559,0,3,0,216,1,1047,0,717,1481,351,717,3,6,487,0,594,1479,1480,1,441,0,419,0,1480,3,746,351,0,2,1,1,277,0,0,0,0,0,0,0,0,0,0,0,0,0,0,0,0,0,0,0,0,0,0,0,0,0,0,0,0,0,0,0,0,0,0,0,0,0,0,0,0,0,0,0,0,0,0,0,0,0,0,0,0],"split_type":[0,0,0,0,0,0,0,0,0,0,0,0,0,0,0,0,0,0,0,0,0,0,0,0,0,0,0,0,0,0,0,0,0,0,0,0,0,0,0,0,0,0,0,0,0,0,0,0,0,0,0,0,0,0,0,0,0,0,0,0,0,0,0,0,0,0,0,0,0,0,0,0,0,0,0,0,0,0,0,0,0,0,0,0,0,0,0,0,0,0,0,0,0,0,0,0,0,0,0,0,0,0,0,0,0,0,0,0,0,0,0],"sum_hessian":[1.34756E5,1.26227E5,8.529E3,8.0385E4,4.5842E4,6.986E3,1.543E3,6.673E3,7.3712E4,2.6801E4,1.9041E4,6.382E3,6.04E2,1.204E3,3.39E2,4.577E3,2.096E3,2.3087E4,5.0625E4,1.6186E4,1.0615E4,6.212E3,1.2829E4,2.491E3,3.891E3,1E0,6.03E2,3E1,1.174E3,1E0,3.38E2,3.7E1,4.54E3,1E0,2.095E3,1.2066E4,1.1021E4,8.601E3,4.2024E4,7.03E2,1.5483E4,1.743E3,8.872E3,4.699E3,1.513E3,1.58E2,1.2671E4,3.4E2,2.151E3,1.339E3,2.552E3,4.1E1,5.62E2,2.7E1,3E0,1.059E3,1.15E2,1E1,3.28E2,1.8E1,1.9E1,9.4E1,4.446E3,1.6E1,2.079E3,4.371E3,7.695E3,1.291E3,9.73E3,1.1E2,8.491E3,3.8497E4,3.527E3,6.17E2,8.6E1,2.29E2,1.5254E4,5.88E2,1.155E3,2.29E2,8.643E3,4.63E2,4.236E3,6.69E2,8.44E2,1.48E2,1E1,4.89E2,1.2182E4,9.2E1,2.48E2,9.5E1,2.056E3,1.73E2,1.166E3,1.252E3,1.3E3,2.4E1,1.7E1,6E0,5.56E2,1.7E1,1E1,1.011E3,4.8E1,1.12E2,3E0,6E0,4E0,2E0,3.26E2],"tree_param":{"num_deleted":"0","num_feature":"1483","num_nodes":"111","size_leaf_vector":"1"}},{"base_weights":[1.9680504E4,-9.4950444E5,1.5690247E7,-2.1070982E6,3.0203335E6,3.0269506E7,1.0571885E7,-8.084163E5,-3.0134462E6,7.2148206E5,6.686522E6,2.4804518E6,3.7716396E7,5.013167E6,2.7043656E7,-2.3593918E6,2.122914E6,-3.1017856E5,-4.323565E6,2.2377372E7,6.458667E5,3.236849E7,6.6125435E6,-1.3482053E5,2.7424506E7,2.1649672E7,4.804399E7,1.6012391E6,1.7324078E7,1.8410472E8,2.6224326E7,-6.7655575E5,-2.935985E6,6.0464277E4,8.374493E6,-1.0360558E6,7.176105E6,-4.378066E6,9.095168E6,4.1635462E6,-1.451358E5,6.4997415E6,7.16718E7,1.5063255E6,-1.0295362E7,4.3694256E7,-4.5149996E7,2.7440334E7,6.2831595E6,5.5938184E7,2.1830914E7,-5.017465E6,6.110973E6,2.4292869E8,1.6586418E7,1.23035944E8,2.2146066E7,2.704133E6,-4.1776066E5,-1.00414494E6,-5.1519088E5,2.6964494E5,-9.66835E5,4.1284132E6,2.534811E5,-9.886986E5,1.1303268E5,-5.588229E5,2.849019E6,-1.33197E6,7.0038825E5,-1.11210195E5,8.3565895E6,-3.2125812E6,1.3692135E6,3.2814078E6,-7.1309766E4,9.1259875E5,2.303456E6,5.807857E7,7.8757615E6,-5.2163575E5,2.098405E7,1.6769685E7,-6.7732365E6,-1.7088842E7,5.6309485E6,7.0620895E6,2.2170742E7,-4.6382485E6,4.7805485E6,1.574395E7,3.6950148E7,8.94329E6,2.0085538E6,3.0562992E6,-2.6587462E6,3.1743492E6,-2.104904E6,1.3817185E6,1.0793619E8,6.6868576E7,4.8389455E6,2.8514738E7,5.9638216E7,7.2005624E7,6.218588E6],"categories":[],"categories_nodes":[],"categories_segments":[],"categories_sizes":[],"default_left":[1,1,0,0,1,0,0,1,0,0,0,0,0,1,0,0,0,1,1,0,0,0,0,0,0,0,0,0,0,0,0,0,0,0,0,1,0,1,0,0,0,0,0,0,0,0,0,0,0,0,0,0,0,0,0,0,0,0,0,0,0,0,0,0,0,0,0,0,0,0,0,0,0,0,0,0,0,0,0,0,0,0,0,0,0,0,0,0,0,0,0,0,0,0,0,0,0,0,0,0,0,0,0,0,0,0,0],"id":4,"left_children":[1,3,5,7,9,11,13,15,17,19,21,23,25,27,29,31,33,35,37,-1,39,-1,41,43,45,47,49,51,53,-1,55,57,59,61,63,65,67,69,71,73,75,77,79,81,-1,83,85,87,89,91,93,95,97,99,101,103,105,-1,-1,-1,-1,-1,-1,-1,-1,-1,-1,-1,-1,-1,-1,-1,-1,-1,-1,-1,-1,-1,-1,-1,-1,-1,-1,-1,-1,-1,-1,-1,-1,-1,-1,-1,-1,-1,-1,-1,-1,-1,-1,-1,-1,-1,-1,-1,-1,-1,-1],"loss_changes":[2.0466606E18,5.8321155E17,5.853873E17,1.1565285E17,2.4147492E17,4.2186145E17,5.3193087E17,1.8363043E17,2.0495117E17,9.832141E16,8.1960895E16,2.818543E16,2.6577642E17,1.8252137E17,6.885421E17,2.562783E16,1.802E17,1.0266889E17,2.8546552E16,0E0,4.895579E16,0E0,8.0517855E16,2.2042653E16,5.0384326E16,5.597545E16,2.0115744E17,1.0163528E17,1.5290425E17,0E0,5.7569075E17,4.6789103E16,9.851968E15,2.8931857E16,1.406128E17,5.4984687E16,3.5047234E16,1.6124269E16,2.8068114E16,1.9287646E16,1.4739584E16,4.486832E16,1.001334E17,8.340802E16,0E0,2.8762125E16,7.109763E15,8.1251745E16,3.676427E16,1.6814501E17,2.733915E16,8.0770665E16,1.1890453E17,8.189317E16,8.504752E16,1.0619832E17,4.295368E17,0E0,0E0,0E0,0E0,0E0,0E0,0E0,0E0,0E0,0E0,0E0,0E0,0E0,0E0,0E0,0E0,0E0,0E0,0E0,0E0,0E0,0E0,0E0,0E0,0E0,0E0,0E0,0E0,0E0,0E0,0E0,0E0,0E0,0E0,0E0,0E0,0E0,0E0,0E0,0E0,0E0,0E0,0E0,0E0,0E0,0E0,0E0,0E0,0E0,0E0],"parents":[2147483647,0,0,1,1,2,2,3,3,4,4,5,5,6,6,7,7,8,8,9,9,10,10,11,11,12,12,13,13,14,14,15,15,16,16,17,17,18,18,20,20,22,22,23,23,24,24,25,25,26,26,27,27,28,28,30,30,31,31,32,32,33,33,34,34,35,35,36,36,37,37,38,38,39,39,40,40,41,41,42,42,43,43,45,45,46,46,47,47,48,48,49,49,50,50,51,51,52,52,53,53,54,54,55,55,56,56],"right_children":[2,4,6,8,10,12,14,16,18,20,22,24,26,28,30,32,34,36,38,-1,40,-1,42,44,46,48,50,52,54,-1,56,58,60,62,64,66,68,70,72,74,76,78,80,82,-1,84,86,88,90,92,94,96,98,100,102,104,106,-1,-1,-1,-1,-1,-1,-1,-1,-1,-1,-1,-1,-1,-1,-1,-1,-1,-1,-1,-1,-1,-1,-1,-1,-1,-1,-1,-1,-1,-1,-1,-1,-1,-1,-1,-1,-1,-1,-1,-1,-1,-1,-1,-1,-1,-1,-1,-1,-1,-1],"split_conditions":[6.070284E2,5E0,2.00001E0,2.00001E0,3.5915918E2,6E0,1.1128854E3,2.023432E2,2.00001E0,2.00001E0,2.00001E0,6E0,1.483E3,7E0,2.00001E0,2.00001E0,5E0,3.3386627E2,5.564427E2,2.2377372E7,2.00001E0,3.236849E7,1.2E1,2.4281135E3,8E0,1.482E3,2.00001E0,1.68E2,2.00001E0,1.8410472E8,9E0,2.00001E0,1.3658167E2,1.0018E4,2.00001E0,1.2393521E2,2.00001E0,7E0,3.286E3,2.00001E0,2.00001E0,1.447E3,2.00001E0,1.9222566E3,-1.0295362E7,5E0,1.484E3,1.9222566E3,6E0,1.9222566E3,1.616E3,1.63E2,2.00001E0,1.27E3,2.00001E0,2.4281135E3,2.00001E0,2.704133E6,-4.1776066E5,-1.00414494E6,-5.1519088E5,2.6964494E5,-9.66835E5,4.1284132E6,2.534811E5,-9.886986E5,1.1303268E5,-5.588229E5,2.849019E6,-1.33197E6,7.0038825E5,-1.11210195E5,8.3565895E6,-3.2125812E6,1.3692135E6,3.2814078E6,-7.1309766E4,9.1259875E5,2.303456E6,5.807857E7,7.8757615E6,-5.2163575E5,2.098405E7,1.6769685E7,-6.7732365E6,-1.7088842E7,5.6309485E6,7.0620895E6,2.2170742E7,-4.6382485E6,4.7805485E6,1.574395E7,3.6950148E7,8.94329E6,2.0085538E6,3.0562992E6,-2.6587462E6,3.1743492E6,-2.104904E6,1.3817185E6,1.0793619E8,6.6868576E7,4.8389455E6,2.8514738E7,5.9638216E7,7.2005624E7,6.218588E6],"split_indices":[3,1,351,1480,3,1,3,3,1481,1469,746,2,0,2,902,6,1,3,3,0,1480,0,2,3,2,0,1480,0,684,0,0,351,3,0,6,3,204,2,0,206,487,0,351,3,0,1,0,3,2,3,0,0,6,0,261,3,746,0,0,0,0,0,0,0,0,0,0,0,0,0,0,0,0,0,0,0,0,0,0,0,0,0,0,0,0,0,0,0,0,0,0,0,0,0,0,0,0,0,0,0,0,0,0,0,0,0,0],"split_type":[0,0,0,0,0,0,0,0,0,0,0,0,0,0,0,0,0,0,0,0,0,0,0,0,0,0,0,0,0,0,0,0,0,0,0,0,0,0,0,0,0,0,0,0,0,0,0,0,0,0,0,0,0,0,0,0,0,0,0,0,0,0,0,0,0,0,0,0,0,0,0,0,0,0,0,0,0,0,0,0,0,0,0,0,0,0,0,0,0,0,0,0,0,0,0,0,0,0,0,0,0,0,0,0,0,0,0],"sum_hessian":[1.34756E5,1.26908E5,7.848E3,9.8257E4,2.8651E4,2.038E3,5.81E3,4.0388E4,5.7869E4,1.761E4,1.1041E4,4.31E2,1.607E3,4.345E3,1.465E3,2.6413E4,1.3975E4,1.8891E4,3.8978E4,1.7E1,1.7593E4,7E0,1.1034E4,3.91E2,4E1,6.3E2,9.77E2,3.403E3,9.42E2,1E0,1.464E3,6.741E3,1.9672E4,1.0509E4,3.466E3,1.7222E4,1.669E3,3.8821E4,1.57E2,3.229E3,1.4364E4,1.1016E4,1.8E1,3.74E2,1.7E1,3.3E1,7E0,4.57E2,1.73E2,7.5E2,2.27E2,1.379E3,2.024E3,2E0,9.4E2,5.8E1,1.406E3,4.63E2,6.278E3,1.4708E4,4.964E3,8.372E3,2.137E3,2.02E3,1.446E3,6.625E3,1.0597E4,3.41E2,1.328E3,3.8467E4,3.54E2,1.05E2,5.2E1,8.4E1,3.145E3,1.18E2,1.4246E4,2.801E3,8.215E3,4E0,1.4E1,3.58E2,1.6E1,2.8E1,5E0,6E0,1E0,4.23E2,3.4E1,5.3E1,1.2E2,7.15E2,3.5E1,1.48E2,7.9E1,2.78E2,1.101E3,1.51E3,5.14E2,1E0,1E0,1E0,9.39E2,4.4E1,1.4E1,8E0,1.398E3],"tree_param":{"num_deleted":"0","num_feature":"1483","num_nodes":"107","size_leaf_vector":"1"}},{"base_weights":[1.9516117E4,-5.143107E5,1.4275454E7,-1.4138976E6,2.4384205E6,1.1277704E6,1.8267734E7,-5.6512744E5,-2.2883415E6,7.6027865E6,1.1577988E6,3.6139188E7,-3.5216816E5,3.2910886E8,1.8012762E7,-1.2126228E6,3.4094835E6,-1.5328971E6,-3.5016848E6,5.4604675E6,1.2571374E7,1.3897027E7,9.0276244E5,2.331587E7,6.6897164E7,9.2819816E7,-7.8120756E5,1.5648901E8,-8.390011E6,-3.4399576E7,1.9215346E7,2.6121788E6,-1.4986132E6,-3.7426542E6,5.2624285E6,-2.103943E6,1.2687402E6,5.423442E6,-3.6451152E6,-1.2338572E7,5.703211E6,2.3868798E6,1.5411876E7,6.0434025E6,3.2382386E7,6.3306325E5,1.1452203E7,2.4095164E7,-3.601224E5,5.464736E6,7.4092344E7,-5.127725E6,3.7371296E7,7.670688E7,-1.2109736E6,-3.8654296E7,4.781131E7,1.1200583E7,2.752849E7,-1.59799E6,1.4341391E6,-1.7414559E6,-3.8842438E5,-2.4742542E6,-2.9574772E5,1.2991616E5,2.5150095E6,-9.1217575E5,-5.117331E5,-1.2510265E6,6.588817E5,4.0088488E5,4.0146588E6,-9.36161E5,-1.6094831E6,2.8035638E6,-8.517536E6,-3.1779365E6,1.7748741E6,-5.320053E5,1.8526846E6,7.7778035E6,3.935777E6,-1.6511105E6,3.0112865E6,7.676552E6,1.472012E7,1.911852E7,1.7768512E5,5.6838292E7,3.2497572E6,7.472372E6,-2.868924E5,2.5903258E7,9.31967E6,4.548083E7,4.0747262E5,3.3143747E5,-4.0840882E6,-7.30426E6,-2.1261628E7,1.8958608E7,2.415056E6,1.108005E7,2.973081E6],"categories":[],"categories_nodes":[],"categories_segments":[],"categories_sizes":[],"default_left":[1,1,0,0,0,0,0,1,0,0,0,0,0,0,0,0,0,0,0,0,0,0,1,0,0,0,0,0,0,0,0,0,0,0,0,0,0,1,1,0,0,1,1,0,0,0,0,0,0,0,0,0,0,0,0,0,0,0,0,0,0,0,0,0,0,0,0,0,0,0,0,0,0,0,0,0,0,0,0,0,0,0,0,0,0,0,0,0,0,0,0,0,0,0,0,0,0,0,0,0,0,0,0,0,0],"id":5,"left_children":[1,3,5,7,9,11,13,15,17,19,21,23,25,27,29,31,33,35,37,39,41,43,45,47,49,51,53,-1,-1,55,57,59,61,63,65,67,69,71,73,75,77,79,81,83,85,87,89,91,-1,-1,93,-1,-1,95,97,99,-1,101,103,-1,-1,-1,-1,-1,-1,-1,-1,-1,-1,-1,-1,-1,-1,-1,-1,-1,-1,-1,-1,-1,-1,-1,-1,-1,-1,-1,-1,-1,-1,-1,-1,-1,-1,-1,-1,-1,-1,-1,-1,-1,-1,-1,-1,-1,-1],"loss_changes":[1.0255353E18,3.4503293E17,2.5528701E17,7.3893796E16,2.0060145E17,5.8770645E16,2.8977533E17,1.3002979E17,4.494446E16,6.4084554E16,7.896005E16,1.6583522E16,4.3604694E16,2.2082207E17,2.3570093E17,4.7528697E16,9.382101E16,4.8356942E16,2.4106758E16,1.8273067E16,5.2469502E16,6.905377E16,6.7796136E16,6.7850605E14,3.203878E15,1.9578424E16,3.6225287E16,0E0,0E0,7.541329E16,2.42617E17,5.20622E16,3.54813E16,1.8086535E16,8.473213E16,9.358193E15,2.582787E16,9.675668E15,1.6690827E16,2.010671E16,1.4494535E16,6.2684704E15,3.3864752E16,1.5552121E16,1.4840675E16,5.9753535E16,6.3470795E16,6.9571383E14,0E0,0E0,3.1163982E15,0E0,0E0,3.365391E16,3.1034403E16,3.6531815E16,0E0,3.0383942E17,2.9607044E17,0E0,0E0,0E0,0E0,0E0,0E0,0E0,0E0,0E0,0E0,0E0,0E0,0E0,0E0,0E0,0E0,0E0,0E0,0E0,0E0,0E0,0E0,0E0,0E0,0E0,0E0,0E0,0E0,0E0,0E0,0E0,0E0,0E0,0E0,0E0,0E0,0E0,0E0,0E0,0E0,0E0,0E0,0E0,0E0,0E0,0E0],"parents":[2147483647,0,0,1,1,2,2,3,3,4,4,5,5,6,6,7,7,8,8,9,9,10,10,11,11,12,12,13,13,14,14,15,15,16,16,17,17,18,18,19,19,20,20,21,21,22,22,23,23,24,24,25,25,26,26,29,29,30,30,31,31,32,32,33,33,34,34,35,35,36,36,37,37,38,38,39,39,40,40,41,41,42,42,43,43,44,44,45,45,46,46,47,47,50,50,53,53,54,54,55,55,57,57,58,58],"right_children":[2,4,6,8,10,12,14,16,18,20,22,24,26,28,30,32,34,36,38,40,42,44,46,48,50,52,54,-1,-1,56,58,60,62,64,66,68,70,72,74,76,78,80,82,84,86,88,90,92,-1,-1,94,-1,-1,96,98,100,-1,102,104,-1,-1,-1,-1,-1,-1,-1,-1,-1,-1,-1,-1,-1,-1,-1,-1,-1,-1,-1,-1,-1,-1,-1,-1,-1,-1,-1,-1,-1,-1,-1,-1,-1,-1,-1,-1,-1,-1,-1,-1,-1,-1,-1,-1,-1,-1],"split_conditions":[8.093712E2,5E0,6E0,2.00001E0,2.00001E0,2.00001E0,2.00001E0,2.5798758E2,2.00001E0,6E0,2.00001E0,1.1128854E3,2.00001E0,1.45E2,2.00001E0,2.00001E0,4E0,2.2510681E2,2.00001E0,2.24E2,2.00001E0,7E0,6.576141E2,1.584E3,9E0,5E0,2.00001E0,1.5648901E8,-8.390011E6,1.3594E4,1.483E3,2.00001E0,2.00001E0,2.00001E0,1.481E3,9.611302E1,2.00001E0,4E0,4.046864E2,4.8E1,5E0,7E0,3E0,3.085734E2,3.793935E2,2.00001E0,2.00001E0,6E0,-3.601224E5,5.464736E6,1.9222566E3,-5.127725E6,3.7371296E7,3E0,2.4281135E3,9.514E3,4.781131E7,4.8E1,3.953E3,-1.59799E6,1.4341391E6,-1.7414559E6,-3.8842438E5,-2.4742542E6,-2.9574772E5,1.2991616E5,2.5150095E6,-9.1217575E5,-5.117331E5,-1.2510265E6,6.588817E5,4.0088488E5,4.0146588E6,-9.36161E5,-1.6094831E6,2.8035638E6,-8.517536E6,-3.1779365E6,1.7748741E6,-5.320053E5,1.8526846E6,7.7778035E6,3.935777E6,-1.6511105E6,3.0112865E6,7.676552E6,1.472012E7,1.911852E7,1.7768512E5,5.6838292E7,3.2497572E6,7.472372E6,-2.868924E5,2.5903258E7,9.31967E6,4.548083E7,4.0747262E5,3.3143747E5,-4.0840882E6,-7.30426E6,-2.1261628E7,1.8958608E7,2.415056E6,1.108005E7,2.973081E6],"split_indices":[3,2,1,6,351,947,902,3,5,2,665,3,746,0,1478,351,2,3,717,0,1479,2,3,0,0,1,232,0,0,0,0,1479,207,1479,0,3,206,2,3,0,1,1,1,3,3,746,261,2,0,0,3,0,0,1,3,0,0,0,0,0,0,0,0,0,0,0,0,0,0,0,0,0,0,0,0,0,0,0,0,0,0,0,0,0,0,0,0,0,0,0,0,0,0,0,0,0,0,0,0,0,0,0,0,0,0],"split_type":[0,0,0,0,0,0,0,0,0,0,0,0,0,0,0,0,0,0,0,0,0,0,0,0,0,0,0,0,0,0,0,0,0,0,0,0,0,0,0,0,0,0,0,0,0,0,0,0,0,0,0,0,0,0,0,0,0,0,0,0,0,0,0,0,0,0,0,0,0,0,0,0,0,0,0,0,0,0,0,0,0,0,0,0,0,0,0,0,0,0,0,0,0,0,0,0,0,0,0,0,0,0,0,0,0],"sum_hessian":[1.34756E5,1.29893E5,4.863E3,9.9561E4,3.0332E4,1.133E3,3.73E3,5.0523E4,4.9038E4,6.026E3,2.4306E4,4.5E1,1.088E3,2E0,3.728E3,4.3446E4,7.077E3,3.0223E4,1.8815E4,4.212E3,1.814E3,4.76E2,2.383E4,3.3E1,1.2E1,4E0,1.084E3,1E0,1E0,8.3E1,3.645E3,3.022E3,4.0424E4,1.456E3,5.621E3,2.5106E4,5.117E3,2.97E2,1.8518E4,5.6E1,4.156E3,3.96E2,1.418E3,3.35E2,1.41E2,2.3237E4,5.93E2,3.2E1,1E0,2E0,1E1,1E0,3E0,5E0,1.079E3,8.2E1,1E0,1.857E3,1.788E3,6.48E2,2.374E3,1.826E3,3.8598E4,5.52E2,9.04E2,2.207E3,3.414E3,7.487E3,1.7619E4,7.45E2,4.372E3,1.97E2,1E2,1.4192E4,4.326E3,2.4E1,3.2E1,5.3E1,4.103E3,1.89E2,2.07E2,2.52E2,1.166E3,8.6E1,2.49E2,1.02E2,3.9E1,1.4E1,2.3223E4,1E0,5.92E2,3.1E1,1E0,7E0,3E0,2E0,3E0,9.1E2,1.69E2,5.8E1,2.4E1,1.05E2,1.752E3,1.165E3,6.23E2],"tree_param":{"num_deleted":"0","num_feature":"1483","num_nodes":"105","size_leaf_vector":"1"}},{"base_weights":[1.6860654E4,-5.0239244E5,7.7008305E6,-1.0928734E6,1.5454872E6,1.6001691E7,4.9408845E6,-2.3152492E5,-1.6948769E6,4.1741916E5,3.8294782E6,1.8653816E7,-8.438891E6,3.078154E6,2.6783892E7,-1.1467349E6,1.4463225E6,-1.0198517E5,-2.4682608E6,1.5947817E7,3.671533E5,3.7372272E6,6.972858E7,1.4170332E7,3.69664E7,1.2902774E7,-1.0395719E7,2.01991E8,2.9764728E6,1.6563162E8,1.8250486E7,1.5147304E7,-1.1905374E6,-1.6966006E5,4.289369E6,-1.0517141E6,2.124908E6,3.8169378E6,-2.5329672E6,1.7216112E7,2.738871E5,1.991112E7,3.5135998E6,-5.5934655E6,1.9136253E8,1.5089757E7,-3.4381996E7,2.9845266E7,1.3603819E8,6.322227E6,1.3109431E7,-7.4256665E6,-3.422683E7,8.1220206E5,9.008375E7,2.8180912E7,2.2417585E6,6.90366E7,3.1742013E8,1.3301566E8,1.6418164E7,5.002488E6,-4.2683205E6,-5.7245325E5,-1.6749597E5,3.4004772E5,-3.2806303E5,-3.0518855E6,1.5497948E6,-6.605731E5,-1.16606836E5,4.0194592E6,5.3982844E5,2.9067028E6,-7.99693E5,-2.2687065E6,-7.358979E5,4.561413E6,1.4260474E7,4.411242E6,4.966987E4,6.624061E6,2.373294E6,5.863788E6,9.9202956E5,1.2558092E7,-5.0273175E6,1.27045416E8,8.2382435E6,4.9174365E6,-5.200015E6,7.845804E7,-1.6287124E7,1.3208615E6,1.2136238E7,4.518397E7,-3.2064382E7,7.9150445E6,-1.0103732E5,6.0662965E6,-2.8320492E6,-1.1340374E7,-5.3982004E4,4.501459E6,1.5249305E7,-4.9095438E5,2.2097472E6,5.635192E7,-3.5339304E7,2.478541E7,9.979156E7,8.793965E7,4.209988E6],"categories":[],"categories_nodes":[],"categories_segments":[],"categories_sizes":[],"default_left":[1,1,0,0,1,0,0,0,0,0,0,0,0,0,0,0,0,1,0,0,0,0,0,0,0,1,0,0,0,0,0,0,0,0,0,0,0,0,0,0,0,0,0,0,0,0,0,0,0,0,0,0,0,0,0,0,0,1,0,0,0,0,0,0,0,0,0,0,0,0,0,0,0,0,0,0,0,0,0,0,0,0,0,0,0,0,0,0,0,0,0,0,0,0,0,0,0,0,0,0,0,0,0,0,0,0,0,0,0,0,0,0,0],"id":6,"left_children":[1,3,5,7,9,11,13,15,17,19,21,23,25,27,29,31,33,35,37,-1,39,41,43,45,47,49,51,53,55,57,59,61,63,65,67,69,71,73,75,77,79,81,83,85,87,89,91,93,95,97,-1,99,101,-1,-1,103,105,107,109,-1,111,-1,-1,-1,-1,-1,-1,-1,-1,-1,-1,-1,-1,-1,-1,-1,-1,-1,-1,-1,-1,-1,-1,-1,-1,-1,-1,-1,-1,-1,-1,-1,-1,-1,-1,-1,-1,-1,-1,-1,-1,-1,-1,-1,-1,-1,-1,-1,-1,-1,-1,-1,-1],"loss_changes":[5.3767417E17,1.5264087E17,1.9534264E17,5.08046E16,7.2787026E16,1.3809323E17,2.6044053E17,6.189792E16,7.104563E16,5.0118446E16,5.651971E16,1.5711616E17,8.86239E15,1.18750486E17,5.9295356E17,1.8633297E16,6.5364034E16,3.986895E16,1.5798264E16,0E0,2.9687621E16,3.3668755E16,1.20172695E17,6.94433E16,2.6191487E17,3.3714323E15,1.3335536E16,5.794872E16,1.0917491E17,4.0328492E17,3.6273796E17,3.37849E15,1.1801148E16,1.0923572E16,6.5419636E16,1.0077013E16,2.0655668E16,1.5100037E16,1.5437676E16,5.6195116E15,2.9371293E16,3.131044E15,3.0449635E16,5.4695587E15,1.7859689E17,6.4267107E16,1.8503954E17,9.510181E16,1.0461169E17,2.1462977E15,0E0,9.770281E15,2.5488483E15,0E0,0E0,4.9076564E16,1.1394124E17,4.438605E17,1.1824492E16,0E0,3.0869184E17,0E0,0E0,0E0,0E0,0E0,0E0,0E0,0E0,0E0,0E0,0E0,0E0,0E0,0E0,0E0,0E0,0E0,0E0,0E0,0E0,0E0,0E0,0E0,0E0,0E0,0E0,0E0,0E0,0E0,0E0,0E0,0E0,0E0,0E0,0E0,0E0,0E0,0E0,0E0,0E0,0E0,0E0,0E0,0E0,0E0,0E0,0E0,0E0,0E0,0E0,0E0,0E0],"parents":[2147483647,0,0,1,1,2,2,3,3,4,4,5,5,6,6,7,7,8,8,9,9,10,10,11,11,12,12,13,13,14,14,15,15,16,16,17,17,18,18,20,20,21,21,22,22,23,23,24,24,25,25,26,26,27,27,28,28,29,29,30,30,31,31,32,32,33,33,34,34,35,35,36,36,37,37,38,38,39,39,40,40,41,41,42,42,43,43,44,44,45,45,46,46,47,47,48,48,49,49,51,51,52,52,55,55,56,56,57,57,58,58,60,60],"right_children":[2,4,6,8,10,12,14,16,18,20,22,24,26,28,30,32,34,36,38,-1,40,42,44,46,48,50,52,54,56,58,60,62,64,66,68,70,72,74,76,78,80,82,84,86,88,90,92,94,96,98,-1,100,102,-1,-1,104,106,108,110,-1,112,-1,-1,-1,-1,-1,-1,-1,-1,-1,-1,-1,-1,-1,-1,-1,-1,-1,-1,-1,-1,-1,-1,-1,-1,-1,-1,-1,-1,-1,-1,-1,-1,-1,-1,-1,-1,-1,-1,-1,-1,-1,-1,-1,-1,-1,-1,-1,-1,-1,-1,-1,-1],"split_conditions":[5.564427E2,5E0,2.00001E0,2.00001E0,4.552722E2,2.00001E0,2.4281135E3,4E0,2.00001E0,2.00001E0,1.2E1,1.3E1,2.00001E0,2.00001E0,2.00001E0,2.00001E0,2.1751894E2,1.5681598E2,2.00001E0,1.5947817E7,2.00001E0,2.00001E0,1.484E3,2.4281135E3,1.9222566E3,6E0,5E0,1.27E3,2.00001E0,1.65E2,2.00001E0,3.1616125E2,3E0,2.00001E0,2.00001E0,7.840799E1,2.00001E0,2.00001E0,1.63E2,6E0,2.00001E0,1.584E3,2.00001E0,1.67E2,1.612E3,1E1,2.00001E0,1.483E3,6.686E3,5E0,1.3109431E7,2.00001E0,6.686E3,8.1220206E5,9.008375E7,1.1128854E3,3.154E3,9E0,7E0,1.3301566E8,2.00001E0,5.002488E6,-4.2683205E6,-5.7245325E5,-1.6749597E5,3.4004772E5,-3.2806303E5,-3.0518855E6,1.5497948E6,-6.605731E5,-1.16606836E5,4.0194592E6,5.3982844E5,2.9067028E6,-7.99693E5,-2.2687065E6,-7.358979E5,4.561413E6,1.4260474E7,4.411242E6,4.966987E4,6.624061E6,2.373294E6,5.863788E6,9.9202956E5,1.2558092E7,-5.0273175E6,1.27045416E8,8.2382435E6,4.9174365E6,-5.200015E6,7.845804E7,-1.6287124E7,1.3208615E6,1.2136238E7,4.518397E7,-3.2064382E7,7.9150445E6,-1.0103732E5,6.0662965E6,-2.8320492E6,-1.1340374E7,-5.3982004E4,4.501459E6,1.5249305E7,-4.9095438E5,2.2097472E6,5.635192E7,-3.5339304E7,2.478541E7,9.979156E7,8.793965E7,4.209988E6],"split_indices":[3,1,351,1480,3,6,3,1,1481,1469,2,1,8,684,445,1269,3,3,342,0,1008,947,0,3,3,1,2,0,947,0,902,3,1,6,206,3,559,6,0,2,717,0,559,0,0,1,1480,0,0,1,0,5,0,0,0,3,0,2,1,0,507,0,0,0,0,0,0,0,0,0,0,0,0,0,0,0,0,0,0,0,0,0,0,0,0,0,0,0,0,0,0,0,0,0,0,0,0,0,0,0,0,0,0,0,0,0,0,0,0,0,0,0,0],"split_type":[0,0,0,0,0,0,0,0,0,0,0,0,0,0,0,0,0,0,0,0,0,0,0,0,0,0,0,0,0,0,0,0,0,0,0,0,0,0,0,0,0,0,0,0,0,0,0,0,0,0,0,0,0,0,0,0,0,0,0,0,0,0,0,0,0,0,0,0,0,0,0,0,0,0,0,0,0,0,0,0,0,0,0,0,0,0,0,0,0,0,0,0,0,0,0,0,0,0,0,0,0,0,0,0,0,0,0,0,0,0,0,0,0],"sum_hessian":[1.34756E5,1.26227E5,8.529E3,9.7977E4,2.825E4,2.127E3,6.402E3,4.0307E4,5.767E4,1.8911E4,9.339E3,1.919E3,2.08E2,5.9E3,5.02E2,2.6081E4,1.4226E4,1.8849E4,3.8821E4,1.7E1,1.8894E4,9.327E3,1.2E1,1.543E3,3.76E2,1.7E1,1.91E2,2E0,5.898E3,2.8E1,4.74E2,6.9E1,2.6012E4,9.071E3,5.155E3,1.3214E4,5.635E3,3.95E2,3.8426E4,1.03E2,1.8791E4,1.26E2,9.201E3,8E0,4E0,1.515E3,2.8E1,3.52E2,2.4E1,1.5E1,2E0,1.71E2,2E1,1E0,1E0,1.66E2,5.732E3,1.8E1,1E1,1E0,4.73E2,6.6E1,3E0,1.2182E4,1.383E4,3.763E3,5.308E3,2.94E2,4.861E3,4.831E3,8.383E3,1.57E2,5.478E3,2.07E2,1.88E2,6E2,3.7826E4,9.8E1,5E0,1.39E2,1.8652E4,1.06E2,2E1,1.16E2,9.085E3,1E0,7E0,1E0,3E0,1.457E3,5.8E1,1E0,2.7E1,1.04E2,2.48E2,2.3E1,1E0,3E0,1.2E1,1.1E1,1.6E2,1.8E1,2E0,1.06E2,6E1,3.263E3,2.469E3,1.1E1,7E0,1E0,9E0,3E0,4.7E2],"tree_param":{"num_deleted":"0","num_feature":"1483","num_nodes":"113","size_leaf_vector":"1"}},{"base_weights":[1.7617717E4,-1.4792542E5,1.3315106E7,2.5716628E6,-5.581574E5,1.1306331E8,1.2867981E7,1.0200645E6,8.493329E6,-6.7753156E5,5.5841555E6,1.7029552E8,1.2000435E7,2.6490888E6,-1.4641161E6,-2.0034589E6,1.1883089E7,1.0457387E7,-7.2127344E5,4.562174E7,4.5004665E6,6.009279E8,-1.451753E8,5.6288984E7,9.555895E6,-2.4632942E6,3.279356E6,-1.2643631E5,-4.9077735E6,2.801637E6,-3.8162658E6,1.3404051E7,-1.4108329E6,3.7000218E6,1.3892437E7,7.4118305E6,-7.7823006E5,1.4783553E7,5.5097904E7,4.798109E7,4.353576E6,4.1739736E7,2.1254466E8,1.8638496E7,-7.930775E7,1.2526606E8,3.61882E7,6.494296E7,7.7581905E6,-1.1047216E6,7.0432225E5,8.2619394E5,2.0370192E6,-1.5187131E5,2.3885062E6,5.027419E6,-1.5659932E6,-2.2061488E5,2.7456998E6,-1.181141E6,3.7182812E6,4.887157E6,2.009282E6,-1.3614356E5,-1.0239624E7,-5.1306906E4,1.603501E6,4.541446E6,1.9411366E6,9.807512E5,5.436726E6,-2.1091881E5,-2.3811278E6,1.630076E6,9.719031E6,1.0357466E7,1.9686264E7,2.966174E7,1.2393046E6,1.9745906E7,5.9633216E7,7.1361315E6,2.7623318E7,1.022285E7,5.0542764E7,1.3532716E5,6.4249895E6],"categories":[],"categories_nodes":[],"categories_segments":[],"categories_sizes":[],"default_left":[1,0,0,0,1,0,0,0,0,0,0,0,0,0,0,0,0,0,0,0,0,0,0,0,0,1,0,0,0,1,1,0,0,0,0,0,1,0,0,0,0,0,0,0,0,0,1,0,0,0,0,0,0,0,0,0,0,0,0,0,0,0,0,0,0,0,0,0,0,0,0,0,0,0,0,0,0,0,0,0,0,0,0,0,0,0,0],"id":7,"left_children":[1,3,5,7,9,-1,11,13,15,17,19,21,23,25,27,29,31,33,35,37,39,41,43,45,47,49,51,53,55,57,59,61,63,65,67,69,71,73,75,-1,77,-1,-1,-1,-1,79,81,83,85,-1,-1,-1,-1,-1,-1,-1,-1,-1,-1,-1,-1,-1,-1,-1,-1,-1,-1,-1,-1,-1,-1,-1,-1,-1,-1,-1,-1,-1,-1,-1,-1,-1,-1,-1,-1,-1,-1],"loss_changes":[2.9664363E17,1.4849717E17,2.645093E17,1.6028601E17,8.4806655E16,0E0,2.2412564E17,5.5950762E16,1.2890037E17,5.5265736E16,9.546587E16,1.3099073E18,1.7788301E17,2.6913167E16,2.5224635E16,7.719672E15,5.538003E16,1.0254673E16,5.2355372E16,1.6134663E16,4.834708E16,1.0009954E17,1.6466767E17,1.147053E17,1.5512336E17,5.38702E15,1.3692897E16,1.2122599E16,1.0450179E16,5.465127E15,1.3086787E15,4.745334E16,8.815318E15,9.624513E14,2.6202822E15,3.4815834E16,6.038359E16,2.294214E15,7.259981E15,0E0,4.4756287E16,0E0,0E0,0E0,0E0,6.9946154E16,4.4939944E16,1.5084973E17,1.5119278E17,0E0,0E0,0E0,0E0,0E0,0E0,0E0,0E0,0E0,0E0,0E0,0E0,0E0,0E0,0E0,0E0,0E0,0E0,0E0,0E0,0E0,0E0,0E0,0E0,0E0,0E0,0E0,0E0,0E0,0E0,0E0,0E0,0E0,0E0,0E0,0E0,0E0,0E0],"parents":[2147483647,0,0,1,1,2,2,3,3,4,4,6,6,7,7,8,8,9,9,10,10,11,11,12,12,13,13,14,14,15,15,16,16,17,17,18,18,19,19,20,20,21,21,22,22,23,23,24,24,25,25,26,26,27,27,28,28,29,29,30,30,31,31,32,32,33,33,34,34,35,35,36,36,37,37,38,38,40,40,45,45,46,46,47,47,48,48],"right_children":[2,4,6,8,10,-1,12,14,16,18,20,22,24,26,28,30,32,34,36,38,40,42,44,46,48,50,52,54,56,58,60,62,64,66,68,70,72,74,76,-1,78,-1,-1,-1,-1,80,82,84,86,-1,-1,-1,-1,-1,-1,-1,-1,-1,-1,-1,-1,-1,-1,-1,-1,-1,-1,-1,-1,-1,-1,-1,-1,-1,-1,-1,-1,-1,-1,-1,-1,-1,-1,-1,-1,-1,-1],"split_conditions":[1.1128854E3,2.00001E0,2.00001E0,6E0,8E0,1.1306331E8,2.00001E0,2.00001E0,2.00001E0,2.00001E0,2.00001E0,9E0,1.45E2,2.00001E0,2.00001E0,3.4E2,2.00001E0,4.299793E2,2.00001E0,5.564427E2,2.00001E0,1.9222566E3,2.4281135E3,2.00001E0,2.00001E0,6E0,7E0,3.085734E2,2.00001E0,7E0,1E1,2.00001E0,8.093712E2,1.7957959E2,1.584E3,4.552722E2,1.011714E3,9E0,8E0,4.798109E7,2.00001E0,4.1739736E7,2.1254466E8,1.8638496E7,-7.930775E7,2.4281135E3,9E0,2.4281135E3,4.03E2,-1.1047216E6,7.0432225E5,8.2619394E5,2.0370192E6,-1.5187131E5,2.3885062E6,5.027419E6,-1.5659932E6,-2.2061488E5,2.7456998E6,-1.181141E6,3.7182812E6,4.887157E6,2.009282E6,-1.3614356E5,-1.0239624E7,-5.1306906E4,1.603501E6,4.541446E6,1.9411366E6,9.807512E5,5.436726E6,-2.1091881E5,-2.3811278E6,1.630076E6,9.719031E6,1.0357466E7,1.9686264E7,2.966174E7,1.2393046E6,1.9745906E7,5.9633216E7,7.1361315E6,2.7623318E7,1.022285E7,5.0542764E7,1.3532716E5,6.4249895E6],"split_indices":[3,351,902,2,1,0,746,6,1479,947,441,1,0,1479,5,0,6,3,559,3,261,3,3,559,947,1,1,3,8,1,1,1480,3,3,0,3,3,1,2,0,684,0,0,0,0,3,1,3,1,0,0,0,0,0,0,0,0,0,0,0,0,0,0,0,0,0,0,0,0,0,0,0,0,0,0,0,0,0,0,0,0,0,0,0,0,0,0],"split_type":[0,0,0,0,0,0,0,0,0,0,0,0,0,0,0,0,0,0,0,0,0,0,0,0,0,0,0,0,0,0,0,0,0,0,0,0,0,0,0,0,0,0,0,0,0,0,0,0,0,0,0,0,0,0,0,0,0,0,0,0,0,0,0,0,0,0,0,0,0,0,0,0,0,0,0,0,0,0,0,0,0,0,0,0,0,0,0],"sum_hessian":[1.34756E5,1.331E5,1.656E3,1.7445E4,1.15655E5,1E0,1.655E3,1.3824E4,3.621E3,1.13451E5,2.204E3,8E0,1.647E3,8.349E3,5.475E3,8.84E2,2.737E3,4.43E2,1.13008E5,5.7E1,2.147E3,3E0,5E0,8.5E1,1.562E3,9.16E2,7.433E3,3.944E3,1.531E3,2.42E2,6.42E2,2.456E3,2.81E2,1.5E2,2.93E2,7.85E2,1.12223E5,1.4E1,4.3E1,1E0,2.146E3,1E0,2E0,2E0,3E0,1.8E1,6.7E1,4.8E1,1.514E3,7.31E2,1.85E2,6.467E3,9.66E2,3.768E3,1.76E2,2.1E1,1.51E3,1.56E2,8.6E1,6.38E2,4E0,1.716E3,7.4E2,2.74E2,7E0,4.5E1,1.05E2,2.5E2,4.3E1,5.67E2,2.18E2,1.11058E5,1.165E3,1E1,4E0,1.6E1,2.7E1,4E0,2.142E3,1.1E1,7E0,5.6E1,1.1E1,3.8E1,1E1,9.87E2,5.27E2],"tree_param":{"num_deleted":"0","num_feature":"1483","num_nodes":"87","size_leaf_vector":"1"}},{"base_weights":[1.7007705E4,-2.713443E5,4.284075E6,-1.0656151E6,3.1441103E5,6.207418E6,-4.422325E6,-2.5861855E6,-9.5158606E5,9.903755E5,-9.3062925E5,4.7755972E7,5.443599E6,7.548665E7,-4.751338E6,-5.7206765E6,-2.2768582E6,-3.057462E6,-8.7611725E5,1.0506593E7,8.6379894E5,1.6495316E5,-1.9895645E6,2.8679206E7,1.6062328E8,6.949144E7,5.1804265E6,1.2391379E8,-5.082448E6,-6.297782E6,-2.2237392E6,1.3943856E6,-2.5101885E6,-2.3819095E6,-4.161803E6,-1.9027839E6,-7.0129375E5,2.1893068E7,7.7755985E6,1.7424796E7,8.011793E5,2.0794228E7,4.2746227E4,-1.7132172E6,-1.8035042E7,2.548778E7,5.600298E7,-5.4160652E7,2.473987E8,9.6655544E7,-5.6728384E7,-4.4690162E5,7.6711305E6,5.1162496E7,-2.3954708E6,3.9212428E7,-5.750234E6,-6.123389E5,-2.0471838E6,-5.9183375E5,-2.1404742E6,4.2451056E5,-4.1962306E5,-1.6434434E6,-7.090346E5,-5.929259E5,-1.1500616E6,-1.2704711E6,9.5679306E5,2.2770227E5,-5.981158E5,-3.8760225E5,-1.20405555E5,3.5396222E6,1.1469131E7,1.976314E6,5.9810065E6,6.8909215E6,2.3757635E6,-4.6485522E5,3.591938E5,9.908899E6,4.388594E6,-8.0214453E3,7.2261045E6,1.3864272E6,-5.5090744E5,-4.237342E6,-8.614242E6,1.3591838E7,2.8425555E6,-4.8095105E6,-2.076516E7,4.0794092E7,9.0011304E7,1.3890217E7,1.08609576E8,5.6485332E7,-2.4211036E5,-2.8267205E6,2.6721645E6,2.9556297E5,3.3229592E7,5.6803855E6,-2.065594E6],"categories":[],"categories_nodes":[],"categories_segments":[],"categories_sizes":[],"default_left":[1,0,0,0,0,0,0,0,0,0,0,0,0,0,0,0,0,0,0,0,0,0,1,1,0,1,0,0,0,0,1,1,0,0,1,0,0,0,0,0,0,0,0,0,0,1,0,0,0,0,0,0,0,0,0,0,0,0,0,0,0,0,0,0,0,0,0,0,0,0,0,0,0,0,0,0,0,0,0,0,0,0,0,0,0,0,0,0,0,0,0,0,0,0,0,0,0,0,0,0,0,0,0,0,0],"id":8,"left_children":[1,3,5,7,9,11,13,15,17,19,21,23,25,-1,27,29,31,33,35,37,39,41,43,45,47,49,51,53,55,57,59,61,63,65,67,69,71,73,75,77,79,81,83,85,87,89,-1,91,93,95,-1,97,99,-1,-1,101,103,-1,-1,-1,-1,-1,-1,-1,-1,-1,-1,-1,-1,-1,-1,-1,-1,-1,-1,-1,-1,-1,-1,-1,-1,-1,-1,-1,-1,-1,-1,-1,-1,-1,-1,-1,-1,-1,-1,-1,-1,-1,-1,-1,-1,-1,-1,-1,-1],"loss_changes":[1.6580852E17,5.8727703E16,1.4286566E17,9.28739E15,6.114422E16,2.2147647E17,1.3126503E17,3.6103066E15,7.9186054E15,5.6708626E16,2.9659582E16,2.6668952E17,1.1530329E17,0E0,6.636512E16,6.6205955E14,2.9185548E15,1.2762613E15,8.635328E15,1.9047347E16,4.8177447E16,3.1678506E16,5.7612717E16,5.0203847E16,3.4888263E17,2.1495628E17,9.580282E16,2.5962377E16,4.577793E16,6.288648E14,4.6317347E13,1.3745405E13,1.3807074E15,6.2342524E14,3.6440865E14,1.6961126E15,7.284939E15,1.9173786E16,7.0916524E15,9.04198E15,4.3112195E16,5.099271E15,2.087271E16,9.978339E15,8.7819196E15,3.3843784E16,0E0,2.334873E15,3.5445094E16,3.3067513E17,0E0,1.4274957E17,1.0019341E17,0E0,0E0,6.2802025E16,4.2663602E16,0E0,0E0,0E0,0E0,0E0,0E0,0E0,0E0,0E0,0E0,0E0,0E0,0E0,0E0,0E0,0E0,0E0,0E0,0E0,0E0,0E0,0E0,0E0,0E0,0E0,0E0,0E0,0E0,0E0,0E0,0E0,0E0,0E0,0E0,0E0,0E0,0E0,0E0,0E0,0E0,0E0,0E0,0E0,0E0,0E0,0E0,0E0,0E0],"parents":[2147483647,0,0,1,1,2,2,3,3,4,4,5,5,6,6,7,7,8,8,9,9,10,10,11,11,12,12,14,14,15,15,16,16,17,17,18,18,19,19,20,20,21,21,22,22,23,23,24,24,25,25,26,26,27,27,28,28,29,29,30,30,31,31,32,32,33,33,34,34,35,35,36,36,37,37,38,38,39,39,40,40,41,41,42,42,43,43,44,44,45,45,47,47,48,48,49,49,51,51,52,52,55,55,56,56],"right_children":[2,4,6,8,10,12,14,16,18,20,22,24,26,-1,28,30,32,34,36,38,40,42,44,46,48,50,52,54,56,58,60,62,64,66,68,70,72,74,76,78,80,82,84,86,88,90,-1,92,94,96,-1,98,100,-1,-1,102,104,-1,-1,-1,-1,-1,-1,-1,-1,-1,-1,-1,-1,-1,-1,-1,-1,-1,-1,-1,-1,-1,-1,-1,-1,-1,-1,-1,-1,-1,-1,-1,-1,-1,-1,-1,-1,-1,-1,-1,-1,-1,-1,-1,-1,-1,-1,-1,-1],"split_conditions":[5.564427E2,1.3658167E2,2.00001E0,2.00001E0,2.00001E0,2.00001E0,2.00001E0,2.00001E0,2.00001E0,2.00001E0,2.00001E0,2.4281135E3,2.00001E0,7.548665E7,2.00001E0,2.00001E0,2.00001E0,3E0,2.00001E0,1.27E3,2.00001E0,2.00001E0,5E0,1.8E1,8E0,1E1,3.4E2,1.024E3,2.00001E0,1.1381805E2,6E0,5E0,2.00001E0,1.2140592E2,9E0,2.00001E0,1.011716E2,3.17E2,5.05857E2,6.935E3,2.00001E0,4.299793E2,4.552722E2,2.00001E0,5.05857E2,4E0,5.600298E7,8E0,1.2E1,2.4281135E3,-5.6728384E7,2.00001E0,2.00001E0,5.1162496E7,-2.3954708E6,8E0,1.6E2,-6.123389E5,-2.0471838E6,-5.9183375E5,-2.1404742E6,4.2451056E5,-4.1962306E5,-1.6434434E6,-7.090346E5,-5.929259E5,-1.1500616E6,-1.2704711E6,9.5679306E5,2.2770227E5,-5.981158E5,-3.8760225E5,-1.20405555E5,3.5396222E6,1.1469131E7,1.976314E6,5.9810065E6,6.8909215E6,2.3757635E6,-4.6485522E5,3.591938E5,9.908899E6,4.388594E6,-8.0214453E3,7.2261045E6,1.3864272E6,-5.5090744E5,-4.237342E6,-8.614242E6,1.3591838E7,2.8425555E6,-4.8095105E6,-2.076516E7,4.0794092E7,9.0011304E7,1.3890217E7,1.08609576E8,5.6485332E7,-2.4211036E5,-2.8267205E6,2.6721645E6,2.9556297E5,3.3229592E7,5.6803855E6,-2.065594E6],"split_indices":[3,3,6,1478,6,559,723,424,503,594,5,3,746,0,277,6,425,2,1482,0,717,1008,2,2,2,1,0,0,216,3,1,1,482,3,2,1265,3,0,3,0,1482,3,3,717,3,2,0,1,2,3,0,902,1482,0,0,2,0,0,0,0,0,0,0,0,0,0,0,0,0,0,0,0,0,0,0,0,0,0,0,0,0,0,0,0,0,0,0,0,0,0,0,0,0,0,0,0,0,0,0,0,0,0,0,0,0],"split_type":[0,0,0,0,0,0,0,0,0,0,0,0,0,0,0,0,0,0,0,0,0,0,0,0,0,0,0,0,0,0,0,0,0,0,0,0,0,0,0,0,0,0,0,0,0,0,0,0,0,0,0,0,0,0,0,0,0,0,0,0,0,0,0,0,0,0,0,0,0,0,0,0,0,0,0,0,0,0,0,0,0,0,0,0,0,0,0,0,0,0,0,0,0,0,0,0,0,0,0,0,0,0,0,0,0],"sum_hessian":[1.34756E5,1.26227E5,8.529E3,5.3577E4,7.265E4,6.986E3,1.543E3,3.736E3,4.9841E4,4.7086E4,2.5564E4,1.25E2,6.861E3,1E0,1.542E3,3.34E2,3.402E3,1.723E3,4.8118E4,6.17E2,4.6469E4,1.2565E4,1.2999E4,1.08E2,1.7E1,2.7E1,6.834E3,3E0,1.539E3,2.86E2,4.8E1,2.03E2,3.199E3,1.071E3,6.52E2,7E3,4.1118E4,1.18E2,4.99E2,1.74E2,4.6295E4,7.3E1,1.2492E4,1.278E4,2.19E2,1.07E2,1E0,5E0,1.2E1,2.5E1,2E0,2.097E3,4.737E3,2E0,1E0,2.2E1,1.517E3,3.2E1,2.54E2,4.7E1,1E0,2.02E2,1E0,1.49E2,3.05E3,8.39E2,2.32E2,6.46E2,6E0,2.31E2,6.769E3,1.3846E4,2.7272E4,7.4E1,4.4E1,4.56E2,4.3E1,1.09E2,6.5E1,6.676E3,3.9619E4,2.3E1,5E1,1.2457E4,3.5E1,2.43E2,1.2537E4,1.62E2,5.7E1,4.7E1,6E1,2E0,3E0,5E0,7E0,2.2E1,3E0,3E0,2.094E3,3.19E2,4.418E3,1.5E1,7E0,6.6E1,1.451E3],"tree_param":{"num_deleted":"0","num_feature":"1483","num_nodes":"105","size_leaf_vector":"1"}},{"base_weights":[1.5555575E4,-8.316002E4,7.945024E6,1.4805394E6,-3.1903378E5,8.763101E7,7.5970395E6,5.565319E5,5.007023E6,-3.8134134E5,5.530574E6,1.0401552E7,-1.6196582E7,1.4026289E6,-7.337286E5,8.491613E6,7.4809575E5,3.463109E7,-3.9174334E5,1.6081738E8,5.1432355E6,6.076501E7,1.0005034E7,6.4163652E7,-1.8748044E7,-1.9750036E6,1.8190785E6,-1.3562014E6,1.8638336E6,-2.2014484E5,1.1537336E7,3.8160888E6,-3.1390678E6,3.700727E7,-6.567464E6,-3.3082378E5,-5.2699955E6,6.46716E5,7.172111E7,2.5492692E7,3.9729162E6,1.3068939E7,-1.3066977E7,-2.5474846E7,3.432207E7,-8.398255E5,3.8402575E5,-3.3756888E6,5.73269E5,-2.9220316E5,-1.8034379E6,-9.202713E5,1.9720304E6,-2.4926895E6,2.6804325E6,2.3144462E6,6.7743285E6,4.9741497E5,5.5396545E6,-7.610362E5,-2.9908912E6,-7.5386094E5,1.1496242E7,3.7186658E6,-1.054056E5,-1.6156034E7,-1.3810656E6,-9.663111E5,2.379448E7,1.1535712E7,9.615666E5,6.2839772E7,3.6006558E6,3.984351E7,-6.269204E6,2.7222402E7,-8.276128E6,-4.3004315E6,1.8487378E7],"categories":[],"categories_nodes":[],"categories_segments":[],"categories_sizes":[],"default_left":[1,0,0,0,1,0,0,0,0,0,0,0,0,0,0,0,0,1,1,0,0,0,1,0,0,1,0,0,0,0,0,0,0,0,0,0,0,0,0,0,0,0,0,0,0,0,0,0,0,0,0,0,0,0,0,0,0,0,0,0,0,0,0,0,0,0,0,0,0,0,0,0,0,0,0,0,0,0,0],"id":9,"left_children":[1,3,5,7,9,-1,11,13,15,17,19,21,23,25,27,29,31,33,35,37,39,-1,41,-1,43,45,47,49,51,53,55,57,59,61,-1,63,65,-1,-1,67,69,71,73,75,77,-1,-1,-1,-1,-1,-1,-1,-1,-1,-1,-1,-1,-1,-1,-1,-1,-1,-1,-1,-1,-1,-1,-1,-1,-1,-1,-1,-1,-1,-1,-1,-1,-1,-1],"loss_changes":[1.0548335E17,4.9092868E16,1.6162931E17,5.684496E16,4.2155804E16,0E0,1.1067251E17,1.509358E16,5.3746353E16,4.169182E16,7.249398E16,1.1088757E17,1.067398E17,1.1748816E16,8.8567363E15,5.285746E16,1.9462943E16,5.376629E15,3.3997245E16,3.6731875E16,2.8882008E16,0E0,1.0479267E17,0E0,6.2990983E16,2.4643934E15,8.943696E15,7.854639E15,2.4615383E16,3.8359375E16,6.213505E16,2.8801376E16,2.9367317E15,1.8093538E15,0E0,2.952427E16,4.54376E16,0E0,0E0,1.02254315E17,3.036983E16,2.7131207E17,2.0153278E17,4.0552257E16,2.745246E16,0E0,0E0,0E0,0E0,0E0,0E0,0E0,0E0,0E0,0E0,0E0,0E0,0E0,0E0,0E0,0E0,0E0,0E0,0E0,0E0,0E0,0E0,0E0,0E0,0E0,0E0,0E0,0E0,0E0,0E0,0E0,0E0,0E0,0E0],"parents":[2147483647,0,0,1,1,2,2,3,3,4,4,6,6,7,7,8,8,9,9,10,10,11,11,12,12,13,13,14,14,15,15,16,16,17,17,18,18,19,19,20,20,22,22,24,24,25,25,26,26,27,27,28,28,29,29,30,30,31,31,32,32,33,33,35,35,36,36,39,39,40,40,41,41,42,42,43,43,44,44],"right_children":[2,4,6,8,10,-1,12,14,16,18,20,22,24,26,28,30,32,34,36,38,40,-1,42,-1,44,46,48,50,52,54,56,58,60,62,-1,64,66,-1,-1,68,70,72,74,76,78,-1,-1,-1,-1,-1,-1,-1,-1,-1,-1,-1,-1,-1,-1,-1,-1,-1,-1,-1,-1,-1,-1,-1,-1,-1,-1,-1,-1,-1,-1,-1,-1,-1,-1],"split_conditions":[1.1128854E3,2.00001E0,2.00001E0,6E0,9E0,8.763101E7,8.484E3,2.00001E0,2.00001E0,2.00001E0,2.00001E0,2.00001E0,2.00001E0,2.00001E0,8.491E3,1.483E3,1.616E3,8E0,1.011714E3,1.27E3,2.00001E0,6.076501E7,1E1,6.4163652E7,1.2376E4,6E0,3E0,4E0,2.00001E0,7E0,1.011714E3,1.599E3,6.576141E2,3E0,-6.567464E6,2.00001E0,2.00001E0,6.46716E5,7.172111E7,1.66E2,2.00001E0,2.00001E0,2.00001E0,2.00001E0,9E0,-8.398255E5,3.8402575E5,-3.3756888E6,5.73269E5,-2.9220316E5,-1.8034379E6,-9.202713E5,1.9720304E6,-2.4926895E6,2.6804325E6,2.3144462E6,6.7743285E6,4.9741497E5,5.5396545E6,-7.610362E5,-2.9908912E6,-7.5386094E5,1.1496242E7,3.7186658E6,-1.054056E5,-1.6156034E7,-1.3810656E6,-9.663111E5,2.379448E7,1.1535712E7,9.615666E5,6.2839772E7,3.6006558E6,3.984351E7,-6.269204E6,2.7222402E7,-8.276128E6,-4.3004315E6,1.8487378E7],"split_indices":[3,351,902,2,2,0,0,6,1480,1007,684,1265,723,1479,0,0,0,1,3,0,446,0,2,0,0,1,1,2,1479,2,3,0,3,1,0,1008,1105,0,0,0,441,746,559,339,1,0,0,0,0,0,0,0,0,0,0,0,0,0,0,0,0,0,0,0,0,0,0,0,0,0,0,0,0,0,0,0,0,0,0],"split_type":[0,0,0,0,0,0,0,0,0,0,0,0,0,0,0,0,0,0,0,0,0,0,0,0,0,0,0,0,0,0,0,0,0,0,0,0,0,0,0,0,0,0,0,0,0,0,0,0,0,0,0,0,0,0,0,0,0,0,0,0,0,0,0,0,0,0,0,0,0,0,0,0,0,0,0,0,0,0,0],"sum_hessian":[1.34756E5,1.331E5,1.656E3,1.7445E4,1.15655E5,1E0,1.655E3,1.3824E4,3.621E3,1.14437E5,1.218E3,1.481E3,1.74E2,8.349E3,5.475E3,1.991E3,1.63E3,3.3E1,1.14404E5,2E0,1.216E3,2E0,1.479E3,1E0,1.73E2,9.16E2,7.433E3,4.417E3,1.058E3,5.16E2,1.475E3,9.11E2,7.19E2,3.2E1,1E0,1.12994E5,1.41E3,1E0,1E0,6.5E1,1.151E3,1.306E3,1.73E2,1.54E2,1.9E1,7.31E2,1.85E2,5.1E1,7.382E3,4.083E3,3.34E2,5.17E2,5.41E2,2.74E2,2.42E2,1.097E3,3.78E2,7.95E2,1.16E2,6.62E2,5.7E1,1E0,3.1E1,1.81E2,1.12813E5,1.8E1,1.392E3,4.3E1,2.2E1,2.4E1,1.127E3,6E0,1.3E3,8E0,1.65E2,2E0,1.52E2,7E0,1.2E1],"tree_param":{"num_deleted":"0","num_feature":"1483","num_nodes":"79","size_leaf_vector":"1"}},{"base_weights":[1.4235071E4,1.119697E7,-2.9836484E4,8.746295E6,8.9225064E7,-3.8151694E5,1.0626688E6,6.891737E6,2.2405692E7,4.502729E7,3.769643E7,2.5320784E7,-3.9670906E5,-2.0242161E5,2.7031582E6,9.351826E6,2.4424258E6,3.9166916E7,-2.718318E7,-5.973938E6,1.637639E7,1.4637285E7,9.834709E7,-3.7214725E5,-1.1649329E7,9.728837E6,-2.9035062E5,1.2438429E8,2.6687618E6,1.1239566E7,4.462944E6,4.7641105E6,2.176859E6,5.4506284E7,1.9955498E7,-1.2309623E7,-1.4770635E7,1.0842936E6,4.3112828E7,9.543461E6,-3.9717556E5,7.2898936E7,-1.391134E7,1.154234E7,-1.732867E6,4.80149E6,-4.2370634E5,3.2046934E5,7.448637E7,1.4040408E8,2.6395302E6,1.2348998E6,3.8520275E6,-7.168115E5,2.1872475E6,8.2893706E5,-2.0856139E6,6.4734045E6,2.4972528E7,-5.0962862E5,1.998005E7,4.9624975E6,-1.1520732E7,1.3115772E6,-9.125781E6,8.812257E6,2.6186756E7,2.228394E6,6.028535E6,3.3425242E6,-1.2522798E5,2.9778162E6,-1.1483154E7,2.5063955E6,4.6601085E6,-7.9257106E5,-4.2073303E5,2.4385898E5,2.487083E6,-1.6876514E6,-9.604025E4,-2.536271E6,2.680482E6,6.5143395E6,5.6667496E7,1.7526939E6,4.2445638E5],"categories":[],"categories_nodes":[],"categories_segments":[],"categories_sizes":[],"default_left":[0,0,0,0,0,0,0,0,0,0,0,0,1,0,0,0,0,0,0,0,0,1,0,0,0,0,0,1,0,0,1,0,0,0,0,0,0,0,0,0,0,0,0,0,0,0,0,0,0,0,0,0,0,0,0,0,0,0,0,0,0,0,0,0,0,0,0,0,0,0,0,0,0,0,0,0,0,0,0,0,0,0,0,0,0,0,0],"id":10,"left_children":[1,3,5,7,9,11,13,15,17,-1,19,21,23,25,27,29,31,33,35,-1,-1,37,-1,39,41,43,45,47,49,51,53,-1,55,57,59,-1,61,63,65,67,69,-1,71,73,75,77,79,81,-1,83,85,-1,-1,-1,-1,-1,-1,-1,-1,-1,-1,-1,-1,-1,-1,-1,-1,-1,-1,-1,-1,-1,-1,-1,-1,-1,-1,-1,-1,-1,-1,-1,-1,-1,-1,-1,-1],"loss_changes":[6.641404E16,1.0037576E17,5.1572894E16,1.2866309E16,4.4523495E16,3.965977E16,6.783808E16,4.9465074E15,5.176606E16,0E0,1.0818155E16,1.8910887E17,2.8044277E16,1.6119449E16,5.923472E16,2.6446884E15,5.4712407E14,1.2468088E16,2.1443301E15,0E0,0E0,2.272305E16,0E0,2.5134557E16,1.306789E17,3.3873076E15,1.2424816E16,6.140824E16,5.6918075E16,2.3413391E15,1.6257556E15,0E0,8.808736E14,2.1859056E16,2.2334365E16,0E0,8.0349E15,4.3794453E15,8.967488E15,5.542797E15,2.360817E16,0E0,1.28159934E17,1.6514686E15,3.2033158E12,6.491784E15,9.603783E15,3.023064E14,0E0,1.3163233E16,5.5795284E16,0E0,0E0,0E0,0E0,0E0,0E0,0E0,0E0,0E0,0E0,0E0,0E0,0E0,0E0,0E0,0E0,0E0,0E0,0E0,0E0,0E0,0E0,0E0,0E0,0E0,0E0,0E0,0E0,0E0,0E0,0E0,0E0,0E0,0E0,0E0,0E0],"parents":[2147483647,0,0,1,1,2,2,3,3,4,4,5,5,6,6,7,7,8,8,10,10,11,11,12,12,13,13,14,14,15,15,16,16,17,17,18,18,21,21,23,23,24,24,25,25,26,26,27,27,28,28,29,29,30,30,32,32,33,33,34,34,36,36,37,37,38,38,39,39,40,40,42,42,43,43,44,44,45,45,46,46,47,47,49,49,50,50],"right_children":[2,4,6,8,10,12,14,16,18,-1,20,22,24,26,28,30,32,34,36,-1,-1,38,-1,40,42,44,46,48,50,52,54,-1,56,58,60,-1,62,64,66,68,70,-1,72,74,76,78,80,82,-1,84,86,-1,-1,-1,-1,-1,-1,-1,-1,-1,-1,-1,-1,-1,-1,-1,-1,-1,-1,-1,-1,-1,-1,-1,-1,-1,-1,-1,-1,-1,-1,-1,-1,-1,-1,-1,-1],"split_conditions":[2.00001E0,2.4281135E3,6E0,1.1128854E3,7E0,2.00001E0,2.5798758E2,1.584E3,1E1,4.502729E7,1.1E1,1.1128854E3,2.4281135E3,2.00001E0,2.00001E0,6.576141E2,2.00001E0,8E0,1.1E1,-5.973938E6,1.637639E7,5E0,9.834709E7,2.00001E0,2.00001E0,2.00001E0,2.00001E0,1E1,2.00001E0,5.05857E2,5E0,4.7641105E6,6.070284E2,6E0,8E0,-1.2309623E7,1.9222566E3,6.576141E2,8.093712E2,9E0,2.00001E0,7.2898936E7,2.00001E0,1.1E1,1.0623018E2,1.9728462E2,2.00001E0,6E0,7.448637E7,7E0,2.00001E0,1.2348998E6,3.8520275E6,-7.168115E5,2.1872475E6,8.2893706E5,-2.0856139E6,6.4734045E6,2.4972528E7,-5.0962862E5,1.998005E7,4.9624975E6,-1.1520732E7,1.3115772E6,-9.125781E6,8.812257E6,2.6186756E7,2.228394E6,6.028535E6,3.3425242E6,-1.2522798E5,2.9778162E6,-1.1483154E7,2.5063955E6,4.6601085E6,-7.9257106E5,-4.2073303E5,2.4385898E5,2.487083E6,-1.6876514E6,-9.604025E4,-2.536271E6,2.680482E6,6.5143395E6,5.6667496E7,1.7526939E6,4.2445638E5],"split_indices":[947,3,2,3,1,746,3,0,2,0,1,3,3,1265,902,3,1478,1,2,0,0,1,0,222,507,6,1047,1,499,3,1,0,3,1,2,0,3,3,3,1,420,0,4,2,3,3,216,1,0,1,1480,0,0,0,0,0,0,0,0,0,0,0,0,0,0,0,0,0,0,0,0,0,0,0,0,0,0,0,0,0,0,0,0,0,0,0,0],"split_type":[0,0,0,0,0,0,0,0,0,0,0,0,0,0,0,0,0,0,0,0,0,0,0,0,0,0,0,0,0,0,0,0,0,0,0,0,0,0,0,0,0,0,0,0,0,0,0,0,0,0,0,0,0,0,0,0,0,0,0,0,0,0,0,0,0,0,0,0,0,0,0,0,0,0,0,0,0,0,0,0,0,0,0,0,0,0,0],"sum_hessian":[1.34756E5,5.28E2,1.34228E5,5.13E2,1.5E1,1.01542E5,3.2686E4,4.53E2,6E1,6E0,9E0,5.9E1,1.01483E5,1.8455E4,1.4231E4,2.91E2,1.62E2,4.5E1,1.5E1,2E0,7E0,5.8E1,1E0,1.01263E5,2.2E2,1.61E2,1.8294E4,3E0,1.4228E4,2.09E2,8.2E1,2E0,1.6E2,2.4E1,2.1E1,6E0,9E0,4E1,1.8E1,2.54E2,1.01009E5,1E0,2.19E2,1.39E2,2.2E1,4.66E2,1.7828E4,2E0,1E0,2E0,1.4226E4,3.9E1,1.7E2,2.4E1,5.8E1,1.51E2,9E0,1.2E1,1.2E1,1.5E1,6E0,4E0,5E0,3.7E1,3E0,1.5E1,3E0,2.13E2,4.1E1,1.76E2,1.00833E5,1.11E2,1.08E2,7.9E1,6E1,4E0,1.8E1,2.18E2,2.48E2,3.47E2,1.7481E4,1E0,1E0,1E0,1E0,3.934E3,1.0292E4],"tree_param":{"num_deleted":"0","num_feature":"1483","num_nodes":"87","size_leaf_vector":"1"}},{"base_weights":[1.3272971E4,-5.228684E4,5.2794545E6,-1.9812905E6,6.0996645E4,6.4362756E7,4.3349415E6,-1.7538759E6,-1.7727674E7,2.6275688E7,5.160956E4,-6.5792428E7,9.10179E7,9.746049E6,-1.0909728E7,-1.5357164E6,-5.6996185E6,-9.665672E6,-2.3613082E7,9.84847E6,8.2786104E7,-5.693491E6,9.082297E4,-1.2353875E7,-2.9190054E7,-2.4215974E7,1.357441E8,3.681028E6,4.3380316E7,5.4475436E7,-1.1785792E7,-1.0745879E6,-2.444205E6,-2.9627032E6,-8.493565E6,-2.5679338E6,-1.0666134E7,-2.742979E7,-6.204472E6,-7.99301E6,2.6232584E7,1.650091E7,4.9925064E7,-6.200562E6,3.1233742E6,-5.128962E5,4.8523828E5,-7.8694594E5,-4.772298E6,1.4946959E7,-1.9138884E7,7.152089E7,5.7308164E7,7.352605E6,-3.1810984E7,1.5740187E7,7.538776E7,-6.314961E7,-9.106613E6,-9.016334E5,-3.01873E5,-1.3247442E6,-5.6014606E5,2.4825408E6,-1.4253449E6,4.1289265E6,-2.6058552E6,-1.2582062E6,2.994565E5,-3.3265985E6,8.7186125E5,-9.24901E6,-5.1601755E6,1.940678E6,-3.3949978E6,1.269866E7,-4.7092505E6,-1.383183E6,-3.7773535E6,-3.8225134E5,1.928402E6,4.3300206E5,-1.738709E5,7.185935E4,6.5803944E5,2.9559796E7,-4.6040545E6,5.6860756E5,1.5442057E7,-3.1072212E6,-2.43057E7,8.357248E6,-2.2632454E7,1.4136107E7,4.9470236E7,-3.1723442E6,-1.9574892E7,1.4492793E7,-3.291959E6],"categories":[],"categories_nodes":[],"categories_segments":[],"categories_sizes":[],"default_left":[1,0,0,1,0,0,0,1,0,1,0,0,0,0,0,0,0,0,0,1,0,1,1,0,0,0,1,0,0,0,0,0,0,0,0,0,1,0,0,0,0,0,0,1,0,0,0,0,0,0,0,1,0,0,0,0,0,0,0,0,0,0,0,0,0,0,0,0,0,0,0,0,0,0,0,0,0,0,0,0,0,0,0,0,0,0,0,0,0,0,0,0,0,0,0,0,0,0,0],"id":11,"left_children":[1,3,5,7,9,11,13,15,17,19,21,23,25,27,29,31,33,35,37,39,41,43,45,47,-1,49,51,53,55,-1,57,59,61,63,65,67,69,71,-1,73,75,-1,-1,77,79,81,83,-1,-1,-1,-1,85,-1,87,89,91,93,95,97,-1,-1,-1,-1,-1,-1,-1,-1,-1,-1,-1,-1,-1,-1,-1,-1,-1,-1,-1,-1,-1,-1,-1,-1,-1,-1,-1,-1,-1,-1,-1,-1,-1,-1,-1,-1,-1,-1,-1,-1],"loss_changes":[4.6525117E16,2.9085918E16,9.21898E16,2.6407132E16,3.0935522E16,9.6190225E16,1.347309E17,6.2570157E15,4.75382E15,4.0958586E16,2.8313206E16,7.216608E15,1.1667459E17,2.456513E17,7.431697E16,2.887573E15,2.8882656E15,2.992572E14,1.0403055E14,1.0733085E16,1.4081768E16,3.8284694E15,2.9722849E16,6.2014462E13,0E0,2.3691987E16,4.3144905E16,1.3341241E17,1.6159636E17,0E0,5.818561E16,6.011048E14,2.633543E15,3.9383806E15,9.255139E14,4.4778184E13,2.616129E14,2.6968529E14,0E0,9.384019E14,1.3487908E16,0E0,0E0,8.1315306E15,6.912071E14,6.434257E15,3.168859E16,0E0,0E0,0E0,0E0,2.2630221E16,0E0,2.231043E17,1.00506925E17,1.1258927E17,2.0730536E17,1.6286086E15,4.4148944E16,0E0,0E0,0E0,0E0,0E0,0E0,0E0,0E0,0E0,0E0,0E0,0E0,0E0,0E0,0E0,0E0,0E0,0E0,0E0,0E0,0E0,0E0,0E0,0E0,0E0,0E0,0E0,0E0,0E0,0E0,0E0,0E0,0E0,0E0,0E0,0E0,0E0,0E0,0E0,0E0],"parents":[2147483647,0,0,1,1,2,2,3,3,4,4,5,5,6,6,7,7,8,8,9,9,10,10,11,11,12,12,13,13,14,14,15,15,16,16,17,17,18,18,19,19,20,20,21,21,22,22,23,23,25,25,26,26,27,27,28,28,30,30,31,31,32,32,33,33,34,34,35,35,36,36,37,37,39,39,40,40,43,43,44,44,45,45,46,46,51,51,53,53,54,54,55,55,56,56,57,57,58,58],"right_children":[2,4,6,8,10,12,14,16,18,20,22,24,26,28,30,32,34,36,38,40,42,44,46,48,-1,50,52,54,56,-1,58,60,62,64,66,68,70,72,-1,74,76,-1,-1,78,80,82,84,-1,-1,-1,-1,86,-1,88,90,92,94,96,98,-1,-1,-1,-1,-1,-1,-1,-1,-1,-1,-1,-1,-1,-1,-1,-1,-1,-1,-1,-1,-1,-1,-1,-1,-1,-1,-1,-1,-1,-1,-1,-1,-1,-1,-1,-1,-1,-1,-1,-1],"split_conditions":[1.1128854E3,2.00001E0,2.00001E0,5E0,2.00001E0,6.933E3,3.879E3,4E0,3.1616125E2,6E0,2.00001E0,6E0,1.9222566E3,3.286E3,2.00001E0,2.7063403E2,3.793935E2,2.00001E0,2.00001E0,5E0,7E0,7E0,1.2899379E2,4E0,-2.9190054E7,1E1,7E0,1.612E3,8E0,5.4475436E7,4.387E3,2.00001E0,2.00001E0,2.00001E0,2.00001E0,2.82E2,8E0,6.933E3,-6.204472E6,4.23E2,5.564427E2,1.650091E7,4.9925064E7,5E0,7E0,2.00001E0,9E0,-7.8694594E5,-4.772298E6,1.4946959E7,-1.9138884E7,6E0,5.7308164E7,1.485E3,1.1E1,1E1,2.4281135E3,2.00001E0,2.00001E0,-9.016334E5,-3.01873E5,-1.3247442E6,-5.6014606E5,2.4825408E6,-1.4253449E6,4.1289265E6,-2.6058552E6,-1.2582062E6,2.994565E5,-3.3265985E6,8.7186125E5,-9.24901E6,-5.1601755E6,1.940678E6,-3.3949978E6,1.269866E7,-4.7092505E6,-1.383183E6,-3.7773535E6,-3.8225134E5,1.928402E6,4.3300206E5,-1.738709E5,7.185935E4,6.5803944E5,2.9559796E7,-4.6040545E6,5.6860756E5,1.5442057E7,-3.1072212E6,-2.43057E7,8.357248E6,-2.2632454E7,1.4136107E7,4.9470236E7,-3.1723442E6,-1.9574892E7,1.4492793E7,-3.291959E6],"split_indices":[3,7,717,2,1469,0,0,2,3,1,216,1,3,0,723,3,3,1016,1480,1,1,1,3,1,0,2,1,0,2,0,0,1046,1480,594,787,0,1,0,0,0,3,0,0,1,2,205,2,0,0,0,0,1,0,0,2,1,3,4,1336,0,0,0,0,0,0,0,0,0,0,0,0,0,0,0,0,0,0,0,0,0,0,0,0,0,0,0,0,0,0,0,0,0,0,0,0,0,0,0,0],"split_type":[0,0,0,0,0,0,0,0,0,0,0,0,0,0,0,0,0,0,0,0,0,0,0,0,0,0,0,0,0,0,0,0,0,0,0,0,0,0,0,0,0,0,0,0,0,0,0,0,0,0,0,0,0,0,0,0,0,0,0,0,0,0,0,0,0,0,0,0,0,0,0,0,0,0,0,0,0,0,0,0,0,0,0,0,0,0,0,0,0,0,0,0,0,0,0,0,0,0,0],"sum_hessian":[1.34756E5,1.331E5,1.656E3,7.382E3,1.25718E5,2.5E1,1.631E3,7.278E3,1.04E2,4.4E1,1.25674E5,4E0,2.1E1,1.204E3,4.27E2,6.898E3,3.8E2,4.5E1,5.9E1,3.5E1,9E0,8.51E2,1.24823E5,2E0,2E0,6E0,1.5E1,1.021E3,1.83E2,1E0,4.26E2,4.577E3,2.321E3,1.93E2,1.87E2,6E0,3.9E1,2.2E1,3.7E1,1.7E1,1.8E1,8E0,1E0,8.05E2,4.6E1,4.9324E4,7.5499E4,1E0,1E0,2E0,4E0,8E0,7E0,9.26E2,9.5E1,9.9E1,8.4E1,2E1,4.06E2,1.55E2,4.422E3,5.24E2,1.797E3,2.6E1,1.67E2,1E0,1.86E2,4E0,2E0,3.8E1,1E0,1.5E1,7E0,3E0,1.4E1,1.3E1,5E0,6.46E2,1.59E2,2E1,2.6E1,1.625E3,4.7699E4,6.6006E4,9.493E3,6E0,2E0,8.25E2,1.01E2,6.7E1,2.8E1,8.8E1,1.1E1,6.5E1,1.9E1,1E0,1.9E1,1.2E1,3.94E2],"tree_param":{"num_deleted":"0","num_feature":"1483","num_nodes":"99","size_leaf_vector":"1"}},{"base_weights":[1.0552471E4,6.457154E6,-3.337347E4,5.910869E6,5.1003372E7,-2.9183324E4,-8.014416E7,-8.770607E5,1.1049374E7,2.0035504E7,-4.193392E4,-1.6017397E7,-3.0777418E7,-1.1622079E5,-7.483968E7,8.725868E6,7.9011176E7,2.5797928E7,-4.3821016E7,-1.2646514E6,1.3355722E5,5.2842844E5,-7.7362575E6,8.0723575E5,-1.7240528E7,-1.0601621E6,-2.92291E7,5.860883E6,1.6964462E7,-3.946504E7,1.31665016E8,1.6242813E7,2.1045075E8,-1.0817454E6,-1.749643E7,-1.9430026E6,2.549638E5,-1.327541E6,3.213025E5,-6.2515155E6,7.6678095E6,1.9734514E6,-5.5222945E6,2.5359338E6,9.345377E6,-2.2061185E6,-1.610468E7,6.4535396E7,1.8914638E7,-7.8061875E5,8.658083E6,1.2639428E8,-6.3320964E7,7.6490006E5,-3.6605578E5,4.7941164E7,-6.9736085E6,-4.9255653E5,-6.8319245E6,2.7175745E3,5.564752E5],"categories":[],"categories_nodes":[],"categories_segments":[],"categories_sizes":[],"default_left":[0,1,1,0,0,0,0,1,0,1,0,0,0,0,0,0,0,0,0,0,0,0,0,0,1,0,0,0,0,0,0,0,0,0,0,0,0,0,0,0,0,0,0,0,0,0,0,0,0,0,0,0,0,0,0,0,0,0,0,0,0],"id":12,"left_children":[1,3,5,7,-1,9,11,13,15,17,19,21,-1,23,25,27,29,31,-1,33,35,-1,-1,37,39,-1,-1,41,43,45,47,49,51,53,55,57,59,-1,-1,-1,-1,-1,-1,-1,-1,-1,-1,-1,-1,-1,-1,-1,-1,-1,-1,-1,-1,-1,-1,-1,-1],"loss_changes":[3.8159762E16,8.047968E16,4.492652E16,3.1750316E16,0E0,3.4242041E16,8.433031E15,2.210687E16,8.110777E16,8.512779E16,2.870101E16,5.66527E14,0E0,6.1812037E15,6.0990705E15,1.1749502E16,1.1124605E17,1.4302512E17,0E0,4.9822823E16,2.9489318E16,0E0,0E0,5.1677718E14,3.6123724E15,0E0,0E0,6.631507E15,1.5313272E16,2.344437E15,5.5151795E16,1.9097055E16,4.4446E17,8.349515E15,1.943214E17,4.0492E16,4.3478298E16,0E0,0E0,0E0,0E0,0E0,0E0,0E0,0E0,0E0,0E0,0E0,0E0,0E0,0E0,0E0,0E0,0E0,0E0,0E0,0E0,0E0,0E0,0E0,0E0],"parents":[2147483647,0,0,1,1,2,2,3,3,5,5,6,6,7,7,8,8,9,9,10,10,11,11,13,13,14,14,15,15,16,16,17,17,19,19,20,20,23,23,24,24,27,27,28,28,29,29,30,30,31,31,32,32,33,33,34,34,35,35,36,36],"right_children":[2,4,6,8,-1,10,12,14,16,18,20,22,-1,24,26,28,30,32,-1,34,36,-1,-1,38,40,-1,-1,42,44,46,48,50,52,54,56,58,60,-1,-1,-1,-1,-1,-1,-1,-1,-1,-1,-1,-1,-1,-1,-1,-1,-1,-1,-1,-1,-1,-1,-1,-1],"split_conditions":[2.00001E0,1.8E1,2.1E1,2.00001E0,5.1003372E7,2.00001E0,3.348E3,7E0,2.4281135E3,1E1,2.00001E0,4.56E2,-3.0777418E7,2.4281135E3,7E0,1.1E1,8E0,2.4281135E3,-4.3821016E7,8.093712E2,2.00001E0,5.2842844E5,-7.7362575E6,2.00001E0,4E0,-1.0601621E6,-2.92291E7,9E0,1.011714E3,6E0,9E0,5E0,9E0,2.00001E0,2.00001E0,8.093712E2,7E0,-1.327541E6,3.213025E5,-6.2515155E6,7.6678095E6,1.9734514E6,-5.5222945E6,2.5359338E6,9.345377E6,-2.2061185E6,-1.610468E7,6.4535396E7,1.8914638E7,-7.8061875E5,8.658083E6,1.2639428E8,-6.3320964E7,7.6490006E5,-3.6605578E5,4.7941164E7,-6.9736085E6,-4.9255653E5,-6.8319245E6,2.7175745E3,5.564752E5],"split_indices":[559,2,2,1479,0,746,0,2,3,1,1482,0,0,3,1,1,2,3,0,3,1478,0,0,6,1,0,0,2,3,2,0,1,1,1265,1265,3,2,0,0,0,0,0,0,0,0,0,0,0,0,0,0,0,0,0,0,0,0,0,0,0,0],"split_type":[0,0,0,0,0,0,0,0,0,0,0,0,0,0,0,0,0,0,0,0,0,0,0,0,0,0,0,0,0,0,0,0,0,0,0,0,0,0,0,0,0,0,0,0,0,0,0,0,0,0,0,0,0,0,0,0,0,0,0,0,0],"sum_hessian":[1.34756E5,9.11E2,1.33845E5,9.09E2,2E0,1.33839E5,6E0,3.92E2,5.17E2,8.4E1,1.33755E5,2E0,4E0,3.89E2,3E0,5.01E2,1.6E1,8.2E1,2E0,1.6787E4,1.16968E5,1E0,1E0,3.7E2,1.9E1,1E0,2E0,3.73E2,1.28E2,5E0,1.1E1,7.9E1,3E0,1.6601E4,1.86E2,6.46E3,1.10508E5,1.7E1,3.53E2,1.8E1,1E0,3.63E2,1E1,8.1E1,4.7E1,2E0,3E0,4E0,7E0,3.2E1,4.7E1,2E0,1E0,6.09E2,1.5992E4,5E0,1.81E2,6.369E3,9.1E1,9.5787E4,1.4721E4],"tree_param":{"num_deleted":"0","num_feature":"1483","num_nodes":"61","size_leaf_vector":"1"}},{"base_weights":[8.26484E3,4.7119615E6,-3.3144598E4,3.633017E6,7.022278E7,-3.1314075E6,2.457303E4,3.8407508E6,-1.3511554E7,-6.5419776E7,9.97445E7,-2.5472908E6,-1.2795133E7,3.6768697E5,-5.566609E5,8.519794E6,2.1196332E6,-4.0568618E6,-2.3463336E7,5.2527416E7,4.2118696E7,-1.8544342E6,-4.864207E6,-1.1741483E7,-2.8580958E7,8.0054475E6,2.853919E5,9.629182E7,-5.6460806E5,1.4628837E7,-1.9662261E6,1.5606801E6,1.899604E7,2.1839344E7,-3.683789E6,-1.2834882E6,-2.7490695E6,-3.2203285E6,-6.399945E6,-6.1124785E6,-1.3952012E7,-1.0069404E7,-2.7259588E6,7.5873695E6,5.6261692E7,5.426546E5,-1.8220439E6,3.9899956E7,-2.0748361E6,6.2654324E7,-5.710909E5,2.7647172E6,1.4450878E7,1.7917465E6,-9.694812E6,5.702417E5,-3.2542622E6,1.3320368E7,-3.735303E5,-3.4890644E5,-1.3463212E6,-6.8724806E5,-1.2230802E6,-1.4192115E6,-7.7963125E5,-1.15792E6,-2.0496678E6,3.4615685E6,-2.0641879E6,-2.5639962E6,-4.535932E6,2.3664918E6,-1.8041754E7,6.562938E5,4.3276406E4,2.2458082E7,-5.595163E5,4.6220652E7,3.8504625E5,-7.872139E4,-5.315732E5],"categories":[],"categories_nodes":[],"categories_segments":[],"categories_sizes":[],"default_left":[0,0,0,1,0,0,0,0,0,0,1,0,0,0,0,0,0,0,0,1,0,0,0,0,1,0,0,0,0,0,0,1,0,0,0,0,0,1,0,0,0,0,0,1,0,0,0,0,0,0,0,0,0,0,0,0,0,0,0,0,0,0,0,0,0,0,0,0,0,0,0,0,0,0,0,0,0,0,0,0,0],"id":13,"left_children":[1,3,5,7,9,11,13,15,-1,17,19,21,23,25,27,29,31,-1,-1,33,-1,35,37,39,41,43,45,47,49,51,53,55,57,-1,-1,59,61,63,65,67,69,-1,-1,71,-1,73,75,-1,-1,77,79,-1,-1,-1,-1,-1,-1,-1,-1,-1,-1,-1,-1,-1,-1,-1,-1,-1,-1,-1,-1,-1,-1,-1,-1,-1,-1,-1,-1,-1,-1],"loss_changes":[2.6247778E16,8.286753E16,2.3887794E16,1.1881187E16,8.260888E16,1.3757519E16,2.6153383E16,9.275317E15,0E0,1.597686E15,2.333624E16,3.6911733E15,1.9763657E15,5.1829196E16,3.7521285E16,1.9887221E16,7.941339E15,0E0,0E0,1.2716816E16,0E0,9.036321E14,1.3174104E15,1.5572048E15,4.7225152E14,6.455394E16,4.423295E16,1.6074083E16,1.998489E16,3.5141818E16,2.7900932E16,3.477088E15,1.3939489E16,0E0,0E0,4.1398277E14,4.1112286E14,2.2991255E14,2.734058E14,6.08178E14,4.641206E14,0E0,0E0,1.8369219E16,0E0,4.7650575E16,2.941398E16,0E0,0E0,2.7853176E16,1.80411E16,0E0,0E0,0E0,0E0,0E0,0E0,0E0,0E0,0E0,0E0,0E0,0E0,0E0,0E0,0E0,0E0,0E0,0E0,0E0,0E0,0E0,0E0,0E0,0E0,0E0,0E0,0E0,0E0,0E0,0E0],"parents":[2147483647,0,0,1,1,2,2,3,3,4,4,5,5,6,6,7,7,9,9,10,10,11,11,12,12,13,13,14,14,15,15,16,16,19,19,21,21,22,22,23,23,24,24,25,25,26,26,27,27,28,28,29,29,30,30,31,31,32,32,35,35,36,36,37,37,38,38,39,39,40,40,43,43,45,45,46,46,49,49,50,50],"right_children":[2,4,6,8,10,12,14,16,-1,18,20,22,24,26,28,30,32,-1,-1,34,-1,36,38,40,42,44,46,48,50,52,54,56,58,-1,-1,60,62,64,66,68,70,-1,-1,72,-1,74,76,-1,-1,78,80,-1,-1,-1,-1,-1,-1,-1,-1,-1,-1,-1,-1,-1,-1,-1,-1,-1,-1,-1,-1,-1,-1,-1,-1,-1,-1,-1,-1,-1,-1],"split_conditions":[2.00001E0,1.9222566E3,2.00001E0,1.2E1,6.933E3,2.4787042E2,2.00001E0,2.00001E0,-1.3511554E7,6E0,7E0,1.6187456E2,1.011714E3,2.00001E0,2.00001E0,6.935E3,5.05857E2,-4.0568618E6,-2.3463336E7,6E0,4.2118696E7,3E0,4E0,5E0,5E0,1.9222566E3,1.0018E4,1.024E3,2.00001E0,6.576141E2,8.093712E2,5E0,2.00001E0,2.1839344E7,-3.683789E6,1.1716E4,6.825E3,3E0,2.023432E2,2.00001E0,2.984562E2,-1.0069404E7,-2.7259588E6,1.3E1,5.6261692E7,2.00001E0,2.00001E0,3.9899956E7,-2.0748361E6,1.1905E4,4E0,2.7647172E6,1.4450878E7,1.7917465E6,-9.694812E6,5.702417E5,-3.2542622E6,1.3320368E7,-3.735303E5,-3.4890644E5,-1.3463212E6,-6.8724806E5,-1.2230802E6,-1.4192115E6,-7.7963125E5,-1.15792E6,-2.0496678E6,3.4615685E6,-2.0641879E6,-2.5639962E6,-4.535932E6,2.3664918E6,-1.8041754E7,6.562938E5,4.3276406E4,2.2458082E7,-5.595163E5,4.6220652E7,3.8504625E5,-7.872139E4,-5.315732E5],"split_indices":[717,3,503,2,0,3,6,6,0,1,1,3,3,594,277,0,3,0,0,1,0,2,2,1,1,3,0,0,723,3,3,2,10,0,0,0,0,1,3,7,3,0,0,2,0,1480,339,0,0,0,2,0,0,0,0,0,0,0,0,0,0,0,0,0,0,0,0,0,0,0,0,0,0,0,0,0,0,0,0,0,0],"split_type":[0,0,0,0,0,0,0,0,0,0,0,0,0,0,0,0,0,0,0,0,0,0,0,0,0,0,0,0,0,0,0,0,0,0,0,0,0,0,0,0,0,0,0,0,0,0,0,0,0,0,0,0,0,0,0,0,0,0,0,0,0,0,0,0,0,0,0,0,0,0,0,0,0,0,0,0,0,0,0,0,0],"sum_hessian":[1.34756E5,1.175E3,1.33581E5,1.157E3,1.8E1,2.442E3,1.31139E5,1.153E3,4E0,3E0,1.5E1,2.304E3,1.38E2,8.2461E4,4.8678E4,3.09E2,8.44E2,1E0,2E0,8E0,7E0,1.775E3,5.29E2,1.31E2,7E0,8.78E2,8.1583E4,3E0,4.8675E4,1.95E2,1.14E2,8.18E2,2.6E1,6E0,2E0,1.085E3,6.9E2,2.57E2,2.72E2,3.8E1,9.3E1,5E0,2E0,8.77E2,1E0,7.2708E4,8.875E3,2E0,1E0,4E0,4.8671E4,1.69E2,2.6E1,9.1E1,2.3E1,7.97E2,2.1E1,1.1E1,1.5E1,1.047E3,3.8E1,5.15E2,1.75E2,7.3E1,1.84E2,4.1E1,2.31E2,1E0,3.7E1,1.8E1,7.5E1,8.74E2,3E0,1.4175E4,5.8533E4,4E0,8.871E3,1E0,3E0,3.8719E4,9.952E3],"tree_param":{"num_deleted":"0","num_feature":"1483","num_nodes":"81","size_leaf_vector":"1"}},{"base_weights":[6.9603E3,7.68262E7,4.6799673E3,1.208633E7,4.0656876E7,3.831799E7,1.3029941E2,-8.066183E4,5.5195105E6,5.171992E6,2.78098E7,2.01992E7,-2.3683298E3,-1.9221049E6,9.500348E6,3.2511412E6,-5.403001E4,4.0264747E5,-2.2468738E6,3.9667178E6,3.4032168E6,2.3490258E6,3.623307E7,1.4361726E7,-6.588663E4,1.2054108E6,2.3381402E5,1.0714027E5,2.074241E6,5.394594E6,3.0496574E7,2.518965E6,6.6699724E7,-3.4064856E5,2.5259234E4],"categories":[],"categories_nodes":[],"categories_segments":[],"categories_sizes":[],"default_left":[0,0,0,0,0,0,0,0,0,0,0,0,0,0,0,1,0,0,0,0,0,0,1,0,0,0,0,0,0,0,0,0,0,0,0],"id":14,"left_children":[1,3,5,7,-1,9,11,-1,-1,13,-1,-1,15,17,19,21,23,-1,-1,-1,25,27,29,31,33,-1,-1,-1,-1,-1,-1,-1,-1,-1,-1],"loss_changes":[2.3605484E16,1.3562094E16,2.3489348E16,2.3890625E14,0E0,2.8360938E16,2.2667845E16,0E0,0E0,3.5602423E14,0E0,0E0,2.2646673E16,1.0092069E14,1.1385784E14,6.2575792E16,2.2670356E16,0E0,0E0,0E0,3.321159E12,1.8647691E16,6.5037496E16,1.3335657E17,2.1274012E16,0E0,0E0,0E0,0E0,0E0,0E0,0E0,0E0,0E0,0E0],"parents":[2147483647,0,0,1,1,2,2,3,3,5,5,6,6,9,9,12,12,13,13,14,14,15,15,16,16,20,20,21,21,22,22,23,23,24,24],"right_children":[2,4,6,8,-1,10,12,-1,-1,14,-1,-1,16,18,20,22,24,-1,-1,-1,26,28,30,32,34,-1,-1,-1,-1,-1,-1,-1,-1,-1,-1],"split_conditions":[2.00001E0,7E0,2.00001E0,5.33E2,4.0656876E7,8E0,2.00001E0,-8.066183E4,5.5195105E6,4E0,2.78098E7,2.01992E7,1.45E2,1.9728462E2,5E0,1.9222566E3,2.00001E0,4.0264747E5,-2.2468738E6,3.9667178E6,8.157E3,2.5798758E2,9E0,2.4281135E3,3.81E2,1.2054108E6,2.3381402E5,1.0714027E5,2.074241E6,5.394594E6,3.0496574E7,2.518965E6,6.6699724E7,-3.4064856E5,2.5259234E4],"split_indices":[499,1,1352,0,0,2,358,0,0,1,0,0,0,3,2,3,507,0,0,0,0,3,1,3,0,0,0,0,0,0,0,0,0,0,0],"split_type":[0,0,0,0,0,0,0,0,0,0,0,0,0,0,0,0,0,0,0,0,0,0,0,0,0,0,0,0,0,0,0,0,0,0,0],"sum_hessian":[1.34756E5,3E0,1.34753E5,2E0,1E0,1.5E1,1.34738E5,1E0,1E0,1E1,5E0,4E0,1.34734E5,4E0,6E0,2.105E3,1.32629E5,3E0,1E0,3E0,3E0,2.05E3,5.5E1,1.08E2,1.32521E5,2E0,1E0,1.428E3,6.22E2,4.4E1,1.1E1,1.06E2,2E0,1.6306E4,1.16215E5],"tree_param":{"num_deleted":"0","num_feature":"1483","num_nodes":"35","size_leaf_vector":"1"}},{"base_weights":[6.390796E3,8.238337E3,-2.4895268E7,2.3809234E7,2.2315823E3,2.5641594E7,-5.4988E6,5.8927885E6,-2.0989328E4,3.8712964E7,1.9910238E7,4.479275E6,5.093361E7,4.444636E6,-5.1545582E4,-4.1567425E5,1.3169545E7,1.2761454E7,1.2126342E7,5.7571005E6,-1.0402883E7,9.939857E7,1.1914778E7,4.006174E6,4.078899E7,9.142781E5,-1.988402E5,5.483593E6,-4.1630872E6,1.2913692E6,5.956354E6,1.2008311E6,-8.709745E6,3.5704644E7,1.0071258E7,-1.1056758E7,8.614326E6,-1.646691E5,2.2362942E6,2.195977E5,7.5246945E6,-5.7904824E4,-9.239937E6],"categories":[],"categories_nodes":[],"categories_segments":[],"categories_sizes":[],"default_left":[1,0,0,1,0,1,0,0,0,0,0,0,0,1,0,0,0,0,0,0,0,0,0,0,0,0,1,0,0,0,0,0,0,0,0,0,0,0,0,0,0,0,0],"id":15,"left_children":[1,3,-1,5,7,9,-1,11,13,15,17,19,21,23,25,-1,-1,27,-1,29,31,33,35,37,-1,39,41,-1,-1,-1,-1,-1,-1,-1,-1,-1,-1,-1,-1,-1,-1,-1,-1],"loss_changes":[2.0662787E16,1.926543E16,0E0,3.0952348E15,1.8427952E16,1.7014663E15,0E0,3.3451065E16,1.8311374E16,1.9322102E15,3.1498678E15,9.834525E15,2.9072423E16,5.204667E16,1.8961106E16,0E0,0E0,3.1930344E15,0E0,9.620634E15,1.1119443E16,5.043902E15,9.251587E15,1.4297029E16,0E0,7.768126E16,2.060508E16,0E0,0E0,0E0,0E0,0E0,0E0,0E0,0E0,0E0,0E0,0E0,0E0,0E0,0E0,0E0,0E0],"parents":[2147483647,0,0,1,1,3,3,4,4,5,5,7,7,8,8,9,9,10,10,11,11,12,12,13,13,14,14,17,17,19,19,20,20,21,21,22,22,23,23,25,25,26,26],"right_children":[2,4,-1,6,8,10,-1,12,14,16,18,20,22,24,26,-1,-1,28,-1,30,32,34,36,38,-1,40,42,-1,-1,-1,-1,-1,-1,-1,-1,-1,-1,-1,-1,-1,-1,-1,-1],"split_conditions":[2.8E1,2.00001E0,-2.4895268E7,8E0,2.00001E0,5E0,-5.4988E6,2.4281135E3,2.00001E0,3E0,4.046864E2,9E0,7E0,1.8E1,2.00001E0,-4.1567425E5,1.3169545E7,6E0,1.2126342E7,1.1128854E3,1.1128854E3,7E0,1.1E1,2.00001E0,4.078899E7,1.9222566E3,1.3E1,5.483593E6,-4.1630872E6,1.2913692E6,5.956354E6,1.2008311E6,-8.709745E6,3.5704644E7,1.0071258E7,-1.1056758E7,8.614326E6,-1.646691E5,2.2362942E6,2.195977E5,7.5246945E6,-5.7904824E4,-9.239937E6],"split_indices":[2,1007,0,1,947,1,0,3,559,1,3,2,1,2,351,0,0,1,0,3,3,2,1,1479,0,3,2,0,0,0,0,0,0,0,0,0,0,0,0,0,0,0,0],"split_type":[0,0,0,0,0,0,0,0,0,0,0,0,0,0,0,0,0,0,0,0,0,0,0,0,0,0,0,0,0,0,0,0,0,0,0,0,0,0,0,0,0,0,0],"sum_hessian":[1.34756E5,1.34754E5,2E0,3.3E1,1.34721E5,3.2E1,1E0,5.28E2,1.34193E5,8E0,2.4E1,5.13E2,1.5E1,9.11E2,1.33282E5,1E0,7E0,1.9E1,5E0,4.73E2,4E1,6E0,9E0,9.09E2,2E0,1.7636E4,1.15646E5,1.6E1,3E0,4.3E2,4.3E1,2.3E1,1.7E1,4E0,2E0,2E0,7E0,3.92E2,5.17E2,1.7505E4,1.31E2,1.15625E5,2.1E1],"tree_param":{"num_deleted":"0","num_feature":"1483","num_nodes":"43","size_leaf_vector":"1"}},{"base_weights":[5.06852E3,-4.40929E7,8.013823E3,3.4715548E6,-2.4851634E7,6.5345708E7,6.074183E3,-1.0632832E7,8.983365E6,1.0311983E7,3.456703E7,2.3466858E7,6.754897E2,-3.7269582E6,-7.892615E5,-5.9876777E4,4.7002695E6,1.1271915E7,4.0058708E7,1.4136226E7,-8.249004E3,5.597092E6,2.149437E7,1.8715598E7,-3.518154E7,-6.1056704E3,-5.7717148E7,-4.5887528E5,2.6281915E6,7.5573955E6,-1.7667252E6,3.101341E6,4.4202492E7,5.339225E6,-3.7366426E3,-2.1686968E7,8.60712E4],"categories":[],"categories_nodes":[],"categories_segments":[],"categories_sizes":[],"default_left":[0,0,0,0,0,0,0,0,0,0,0,0,0,0,0,0,0,0,0,1,1,0,1,1,0,0,0,0,0,0,0,0,0,0,0,0,0],"id":16,"left_children":[1,3,5,7,-1,9,11,13,-1,15,-1,17,19,-1,-1,-1,-1,21,-1,23,25,27,29,31,-1,33,35,-1,-1,-1,-1,-1,-1,-1,-1,-1,-1],"loss_changes":[1.7502846E16,1.6873918E16,1.7076564E16,2.185322E15,0E0,9.791646E15,1.7066585E16,2.462184E13,0E0,1.7201378E14,0E0,4.010313E16,1.6994896E16,0E0,0E0,0E0,0E0,1.562002E15,0E0,5.3344937E16,1.6652205E16,4.6431147E14,1.1607058E15,8.791783E16,0E0,1.5219766E16,4.24713E15,0E0,0E0,0E0,0E0,0E0,0E0,0E0,0E0,0E0,0E0],"parents":[2147483647,0,0,1,1,2,2,3,3,5,5,6,6,7,7,9,9,11,11,12,12,17,17,19,19,20,20,21,21,22,22,23,23,25,25,26,26],"right_children":[2,4,6,8,-1,10,12,14,-1,16,-1,18,20,-1,-1,-1,-1,22,-1,24,26,28,30,32,-1,34,36,-1,-1,-1,-1,-1,-1,-1,-1,-1,-1],"split_conditions":[2.00001E0,6E0,2.00001E0,5E0,-2.4851634E7,7E0,2.00001E0,3.793935E2,8.983365E6,5.33E2,3.456703E7,1.1128854E3,2.00001E0,-3.7269582E6,-7.892615E5,-5.9876777E4,4.7002695E6,5.564427E2,4.0058708E7,1E1,1.4E1,1.0623018E2,8E0,8E0,-3.518154E7,2.00001E0,4.03E2,-4.5887528E5,2.6281915E6,7.5573955E6,-1.7667252E6,3.101341E6,4.4202492E7,5.339225E6,-3.7366426E3,-2.1686968E7,8.60712E4],"split_indices":[1055,1,499,1,0,1,1426,3,0,0,0,3,746,0,0,0,0,3,0,1,1,3,2,1,0,1469,1,0,0,0,0,0,0,0,0,0,0],"split_type":[0,0,0,0,0,0,0,0,0,0,0,0,0,0,0,0,0,0,0,0,0,0,0,0,0,0,0,0,0,0,0,0,0,0,0,0,0],"sum_hessian":[1.34756E5,8E0,1.34748E5,4E0,4E0,3E0,1.34745E5,3E0,1E0,2E0,1E0,3E1,1.34715E5,2E0,1E0,1E0,1E0,2.8E1,2E0,8.4E1,1.34631E5,1.9E1,9E0,8.2E1,2E0,1.34627E5,4E0,6E0,1.3E1,8E0,1E0,7.8E1,4E0,4.7E1,1.3458E5,3E0,1E0],"tree_param":{"num_deleted":"0","num_feature":"1483","num_nodes":"37","size_leaf_vector":"1"}},{"base_weights":[4.0131824E3,1.1560365E7,-5.0841743E3,1.2529802E7,-4.88782E6,1.8301473E5,-5.8241525E5,-1.346636E6,1.2817916E7,-3.7672138E5,5.313783E5,8.787435E6,-6.345029E5,2.4004282E6,-3.0064145E6,8.869581E6,3.9751852E6,5.645598E6,-5.010229E5,1.651735E7,4.654731E5,6.5635335E6,6.3765028E7,3.142155E7,-6.491015E5,1.127936E7,-3.0071645E6,3.0137072E6,2.372287E7,1.1251842E6,-9.600496E5,7.174597E6,5.4114068E7,8.073032E6,3.5655094E5,7.229543E6,-1.0342468E7,3.531669E7,3.5168264E7,1.8391382E7,2.3223528E7,2.327954E7,-6.672812E5,4.1438832E6,-2.48851E6,-2.0347531E5,1.2961932E6,1.0914988E7,6.326815E5,2.9597253E5,1.5477081E7,-2.4326483E5,-2.896762E6,2.7617325E6,-4.0204244E7,8.524392E6,2.5249474E7,2.7423635E6,-1.7596336E7,4.308019E6,9.242417E4,-2.7012848E6,2.5439738E6,1.2613603E7,2.5101361E5,6.3217945E6,-2.0675716E6,3.2253848E6,3.3470902E7,-1.7117597E5,-1.698956E6],"categories":[],"categories_nodes":[],"categories_segments":[],"categories_sizes":[],"default_left":[0,0,0,0,0,0,0,0,0,0,0,1,0,0,0,0,0,0,0,1,0,0,0,0,0,0,0,0,0,1,1,0,0,0,0,0,0,0,0,0,0,1,0,0,0,0,0,0,0,0,0,0,0,0,0,0,0,0,0,0,0,0,0,0,0,0,0,0,0,0,0],"id":17,"left_children":[1,3,5,7,-1,9,11,13,15,17,19,21,23,-1,-1,25,-1,27,29,31,33,35,37,39,41,43,-1,45,47,49,51,53,55,57,59,61,-1,63,-1,65,-1,67,69,-1,-1,-1,-1,-1,-1,-1,-1,-1,-1,-1,-1,-1,-1,-1,-1,-1,-1,-1,-1,-1,-1,-1,-1,-1,-1,-1,-1],"loss_changes":[1.4167367E16,3.0663382E15,1.4622688E16,4.2905435E14,0E0,1.9804137E16,1.6155262E16,3.2346154E14,5.5026047E13,2.9169142E16,6.59472E16,2.1955929E16,1.5420467E16,0E0,0E0,7.0494083E14,0E0,3.7419507E16,2.8497666E16,8.988477E16,5.165898E16,5.0870017E15,6.5063515E15,7.565196E15,1.4324941E16,7.096992E14,0E0,3.3274626E15,2.7287418E16,5.8734442E16,3.8610287E16,6.0597067E16,3.699525E16,6.3259873E16,4.171663E16,3.6285537E15,0E0,1.3568424E15,0E0,1.0265165E15,0E0,2.645352E16,1.5875517E16,0E0,0E0,0E0,0E0,0E0,0E0,0E0,0E0,0E0,0E0,0E0,0E0,0E0,0E0,0E0,0E0,0E0,0E0,0E0,0E0,0E0,0E0,0E0,0E0,0E0,0E0,0E0,0E0],"parents":[2147483647,0,0,1,1,2,2,3,3,5,5,6,6,7,7,8,8,9,9,10,10,11,11,12,12,15,15,17,17,18,18,19,19,20,20,21,21,22,22,23,23,24,24,25,25,27,27,28,28,29,29,30,30,31,31,32,32,33,33,34,34,35,35,37,37,39,39,41,41,42,42],"right_children":[2,4,6,8,-1,10,12,14,16,18,20,22,24,-1,-1,26,-1,28,30,32,34,36,38,40,42,44,-1,46,48,50,52,54,56,58,60,62,-1,64,-1,66,-1,68,70,-1,-1,-1,-1,-1,-1,-1,-1,-1,-1,-1,-1,-1,-1,-1,-1,-1,-1,-1,-1,-1,-1,-1,-1,-1,-1,-1,-1],"split_conditions":[2.00001E0,2.00001E0,7.269E3,2.276361E2,-4.88782E6,1.447E3,2.00001E0,2.1246036E2,2.5798758E2,2.00001E0,2.00001E0,7E0,2.00001E0,2.4004282E6,-3.0064145E6,2.52929E2,3.9751852E6,4.046864E2,2.00001E0,8E0,1.448E3,5.564427E2,7E0,3.1616125E2,2.00001E0,4E0,-3.0071645E6,1.2393521E2,2.00001E0,1.1E1,9E0,2.4281135E3,9E0,2.4281135E3,2.00001E0,4E0,-1.0342468E7,5.564427E2,3.5168264E7,2.5798758E2,2.3223528E7,9E0,6.576141E2,4.1438832E6,-2.48851E6,-2.0347531E5,1.2961932E6,1.0914988E7,6.326815E5,2.9597253E5,1.5477081E7,-2.4326483E5,-2.896762E6,2.7617325E6,-4.0204244E7,8.524392E6,2.5249474E7,2.7423635E6,-1.7596336E7,4.308019E6,9.242417E4,-2.7012848E6,2.5439738E6,1.2613603E7,2.5101361E5,6.3217945E6,-2.0675716E6,3.2253848E6,3.3470902E7,-1.7117597E5,-1.698956E6],"split_indices":[1269,5,0,3,0,0,1008,3,3,594,446,1,779,0,0,3,0,3,1481,1,0,3,2,3,980,1,0,3,6,2,1,3,2,3,447,2,0,3,0,3,0,2,3,0,0,0,0,0,0,0,0,0,0,0,0,0,0,0,0,0,0,0,0,0,0,0,0,0,0,0,0],"split_type":[0,0,0,0,0,0,0,0,0,0,0,0,0,0,0,0,0,0,0,0,0,0,0,0,0,0,0,0,0,0,0,0,0,0,0,0,0,0,0,0,0,0,0,0,0,0,0,0,0,0,0,0,0,0,0,0,0,0,0,0,0,0,0,0,0,0,0,0,0,0,0],"sum_hessian":[1.34756E5,1.05E2,1.34651E5,1.02E2,3E0,1.01562E5,3.3089E4,2E0,1E2,3.8961E4,6.2601E4,1.82E2,3.2907E4,1E0,1E0,1.2E1,8.8E1,7.87E2,3.8174E4,2.56E2,6.2345E4,1.76E2,6E0,1.4E1,3.2893E4,1.1E1,1E0,6.88E2,9.9E1,8.403E3,2.9771E4,2.06E2,5E1,8.79E2,6.1466E4,1.74E2,2E0,5E0,1E0,1.2E1,2E0,2.4E1,3.2869E4,1E1,1E0,1.8E2,5.08E2,6.2E1,3.7E1,8.381E3,2.2E1,2.927E4,5.01E2,2.04E2,2E0,2.8E1,2.2E1,8.66E2,1.3E1,2.11E2,6.1255E4,1.2E1,1.62E2,4E0,1E0,1.1E1,1E0,2.2E1,2E0,3.2246E4,6.23E2],"tree_param":{"num_deleted":"0","num_feature":"1483","num_nodes":"71","size_leaf_vector":"1"}},{"base_weights":[3.6115515E3,3.8784428E7,1.0213211E3,1.1529887E7,1.7484624E7,2.900158E7,-2.4225754E3,1.0207013E6,3.8133572E6,4.1558382E6,2.0915554E7,3.3612742E6,-3.2040236E4,-1.5280642E6,7.6220775E6,2.5769955E6,5.0984092E7,2.7170068E6,-6.851709E4,1.2147859E6,-1.8749199E6,3.12659E6,2.9166702E6,2.8140265E6,-1.8516424E7,-5.196863E7,7.353577E7,3.6127888E5,9.897869E6,-8.818676E4,5.0869945E6,4.1076784E5,1.1271976E5,3.477103E5,1.2284368E6,6.230374E5,3.07778E6,-2.210092E7,-5.373909E5,-3.4567392E6,-1.848296E7,1.4616728E7,4.073856E7,2.8011212E5,-1.5927658E6,7.5738155E6,8.2821325E5,-1.3882475E6,-1.9167941E4,3.1932992E7,-3.413985E5],"categories":[],"categories_nodes":[],"categories_segments":[],"categories_sizes":[],"default_left":[0,0,0,0,0,0,0,0,0,0,0,0,0,0,0,1,0,0,1,0,0,0,0,1,0,0,1,0,0,0,0,0,0,0,0,0,0,0,0,0,0,0,0,0,0,0,0,0,0,0,0],"id":18,"left_children":[1,3,5,7,-1,9,11,-1,-1,13,-1,15,17,19,21,23,25,27,29,31,-1,-1,33,35,37,39,41,43,45,47,49,-1,-1,-1,-1,-1,-1,-1,-1,-1,-1,-1,-1,-1,-1,-1,-1,-1,-1,-1,-1],"loss_changes":[1.3536468E16,4.1106112E15,1.3458116E16,4.757817E12,0E0,1.5896537E16,1.342296E16,0E0,0E0,2.2836645E14,0E0,4.37917E16,1.3393029E16,7.234623E13,6.1824846E13,5.841866E15,4.793492E16,2.9582786E16,1.3367028E16,3.871867E9,0E0,0E0,3.5368112E12,6.2689654E15,1.1859828E16,8.499064E14,1.810157E16,4.283123E15,4.725262E16,1.4480173E16,3.1622305E17,0E0,0E0,0E0,0E0,0E0,0E0,0E0,0E0,0E0,0E0,0E0,0E0,0E0,0E0,0E0,0E0,0E0,0E0,0E0,0E0],"parents":[2147483647,0,0,1,1,2,2,3,3,5,5,6,6,9,9,11,11,12,12,13,13,14,14,15,15,16,16,17,17,18,18,19,19,22,22,23,23,24,24,25,25,26,26,27,27,28,28,29,29,30,30],"right_children":[2,4,6,8,-1,10,12,-1,-1,14,-1,16,18,20,22,24,26,28,30,32,-1,-1,34,36,38,40,42,44,46,48,50,-1,-1,-1,-1,-1,-1,-1,-1,-1,-1,-1,-1,-1,-1,-1,-1,-1,-1,-1,-1],"split_conditions":[2.00001E0,3.085734E2,2.00001E0,1.3405237E2,1.7484624E7,8E0,2.00001E0,1.0207013E6,3.8133572E6,4E0,2.0915554E7,1.9222566E3,2.00001E0,1.9728462E2,5E0,1.1E1,6.933E3,4.552722E2,2.4281135E3,3E0,-1.8749199E6,3.12659E6,8E0,7E0,7E0,6E0,1E1,4.299793E2,6.655E3,2.00001E0,2.00001E0,4.1076784E5,1.1271976E5,3.477103E5,1.2284368E6,6.230374E5,3.07778E6,-2.210092E7,-5.373909E5,-3.4567392E6,-1.848296E7,1.4616728E7,4.073856E7,2.8011212E5,-1.5927658E6,7.5738155E6,8.2821325E5,-1.3882475E6,-1.9167941E4,3.1932992E7,-3.413985E5],"split_indices":[339,3,1352,3,0,2,717,0,0,1,0,3,270,3,2,2,0,3,3,1,0,0,1,2,1,1,1,3,0,445,445,0,0,0,0,0,0,0,0,0,0,0,0,0,0,0,0,0,0,0,0],"split_type":[0,0,0,0,0,0,0,0,0,0,0,0,0,0,0,0,0,0,0,0,0,0,0,0,0,0,0,0,0,0,0,0,0,0,0,0,0,0,0,0,0,0,0,0,0,0,0,0,0,0,0],"sum_hessian":[1.34756E5,8E0,1.34748E5,4E0,4E0,1.5E1,1.34733E5,1E0,3E0,1E1,5E0,1.175E3,1.33558E5,4E0,6E0,1.157E3,1.8E1,1.748E3,1.3181E5,3E0,1E0,3E0,3E0,1.145E3,1.2E1,3E0,1.5E1,1.317E3,4.31E2,1.3131E5,5E2,2E0,1E0,2E0,1E0,1.043E3,1.02E2,2E0,1E1,1E0,2E0,1.2E1,3E0,1.197E3,1.2E2,1.36E2,2.95E2,6.98E2,1.30612E5,2.8E1,4.72E2],"tree_param":{"num_deleted":"0","num_feature":"1483","num_nodes":"51","size_leaf_vector":"1"}},{"base_weights":[3.2578733E3,5.1372892E7,1.3517827E3,3.4221162E6,1.7553778E7,2.8151506E3,-1.9718758E7,9.403689E1,3.6667364E7,8.465577E6,-1.0977958E4,5.02232E6,3.2649508E7,9.433935E6,-3.5532264E7,5.5518584E7,-1.2628528E4,3.8441584E7,-2.2717554E7,1.8467132E6,8.3195255E6,-3.0927112E6,-1.2151098E7,2.5945498E6,2.9419326E7,1.3499653E7,-4.3906504E3,-4.3632962E5,1.566752E7,1.8647989E6,-9.451482E6],"categories":[],"categories_nodes":[],"categories_segments":[],"categories_sizes":[],"default_left":[0,0,1,0,0,1,0,0,0,1,0,0,0,0,0,0,0,0,0,0,0,0,0,0,0,0,0,0,0,0,0],"id":19,"left_children":[1,3,5,-1,-1,7,-1,9,11,13,15,17,-1,19,21,23,25,27,29,-1,-1,-1,-1,-1,-1,-1,-1,-1,-1,-1,-1],"loss_changes":[1.3194686E16,7.5926324E14,1.2961802E16,0E0,0E0,1.3443888E16,0E0,1.2629433E16,2.2289847E16,7.833798E15,1.2334494E16,8.2896675E15,0E0,1.020658E16,8.402459E13,7.128397E15,1.2156735E16,2.275582E15,1.467086E15,0E0,0E0,0E0,0E0,0E0,0E0,0E0,0E0,0E0,0E0,0E0,0E0],"parents":[2147483647,0,0,1,1,2,2,5,5,7,7,8,8,9,9,10,10,11,11,13,13,14,14,15,15,16,16,17,17,18,18],"right_children":[2,4,6,-1,-1,8,-1,10,12,14,16,18,-1,20,22,24,26,28,30,-1,-1,-1,-1,-1,-1,-1,-1,-1,-1,-1,-1],"split_conditions":[2.00001E0,5E0,2.8E1,3.4221162E6,1.7553778E7,1.6E1,-1.9718758E7,2.00001E0,1.9222566E3,1E1,2.00001E0,1.8E1,3.2649508E7,2.8833905E2,4.95E2,7E0,2.00001E0,9E0,4.56E2,1.8467132E6,8.3195255E6,-3.0927112E6,-1.2151098E7,2.5945498E6,2.9419326E7,1.3499653E7,-4.3906504E3,-4.3632962E5,1.566752E7,1.8647989E6,-9.451482E6],"split_indices":[358,1,2,0,0,2,0,324,3,1,499,2,0,3,0,1,434,0,0,0,0,0,0,0,0,0,0,0,0,0,0],"split_type":[0,0,0,0,0,0,0,0,0,0,0,0,0,0,0,0,0,0,0,0,0,0,0,0,0,0,0,0,0,0,0],"sum_hessian":[1.34756E5,4E0,1.34752E5,1E0,3E0,1.3475E5,2E0,1.34741E5,9E0,1.75E2,1.34566E5,7E0,2E0,1.72E2,3E0,3E0,1.34563E5,3E0,4E0,1.47E2,2.5E1,1E0,2E0,2E0,1E0,5E0,1.34558E5,1E0,2E0,1E0,3E0],"tree_param":{"num_deleted":"0","num_feature":"1483","num_nodes":"31","size_leaf_vector":"1"}},{"base_weights":[2.8889668E3,8.744907E6,-7.1777905E3,1.5567365E6,7.573072E7,3.436025E7,-9.731151E3,-8.66735E5,5.1126416E7,3.441247E7,3.7000348E7,-3.528029E6,5.6303216E7,5.3971668E7,-1.1335389E4,-8.766732E6,2.9673486E7,4.9834055E6,2.2732704E7,2.599919E6,-4.9951695E6,1.4889965E6,3.0149506E7,-4.303319E7,-9.41734E3,-5.3898755E6,-3.4068184E7,-1.3024646E7,6.5179756E7,3.2744612E7,-2.0073394E7,-3.4390806E5,4.3277025E6,-1.5008489E6,-1.82393E7,2.2105882E7,-1.3032895E4,-3.6698785E6,5.0935056E5,-6.653596E6,-1.6582492E7,-5.6316285E6,3.2255353E5,3.3606416E7,-9.467957E6,-1.4843069E7,1.9700764E7,1.6320874E6,-1.8397727E4,3.9539342E6,1.3113657E7,2.3231242E6,-6.974711E3],"categories":[],"categories_nodes":[],"categories_segments":[],"categories_sizes":[],"default_left":[0,0,0,1,0,1,0,0,0,0,1,1,0,0,0,1,0,0,0,0,0,0,0,0,0,0,0,1,0,0,0,0,0,0,0,0,0,0,0,0,0,0,0,0,0,0,0,0,0,0,0,0,0],"id":20,"left_children":[1,3,5,7,9,11,13,15,-1,-1,17,19,-1,21,23,25,27,29,-1,31,-1,-1,-1,33,35,37,39,41,43,45,-1,-1,47,-1,-1,49,51,-1,-1,-1,-1,-1,-1,-1,-1,-1,-1,-1,-1,-1,-1,-1,-1],"loss_changes":[1.1859189E16,7.451545E16,1.1812077E16,5.7850358E16,1.839995E16,5.8751347E16,1.1656311E16,3.403761E16,0E0,0E0,1.0795585E16,7.670181E14,0E0,8.621977E15,1.1105775E16,9.385586E15,4.4814436E16,1.4166289E16,0E0,5.027043E13,0E0,0E0,0E0,3.7493765E15,1.0761661E16,4.8709267E15,2.0518798E15,1.1547151E15,7.603844E16,1.678466E16,0E0,0E0,2.4749548E13,0E0,0E0,3.6668047E15,1.0663697E16,0E0,0E0,0E0,0E0,0E0,0E0,0E0,0E0,0E0,0E0,0E0,0E0,0E0,0E0,0E0,0E0],"parents":[2147483647,0,0,1,1,2,2,3,3,4,4,5,5,6,6,7,7,10,10,11,11,13,13,14,14,15,15,16,16,17,17,19,19,23,23,24,24,25,25,26,26,27,27,28,28,29,29,32,32,35,35,36,36],"right_children":[2,4,6,8,10,12,14,16,-1,-1,18,20,-1,22,24,26,28,30,-1,32,-1,-1,-1,34,36,38,40,42,44,46,-1,-1,48,-1,-1,50,52,-1,-1,-1,-1,-1,-1,-1,-1,-1,-1,-1,-1,-1,-1,-1,-1],"split_conditions":[2.00001E0,1.1128854E3,2.00001E0,1.1E1,6E0,1E1,2.00001E0,7E0,5.1126416E7,3.441247E7,6E0,5E0,5.6303216E7,5E0,2.00001E0,7E0,6.576141E2,1.9222566E3,2.2732704E7,3E0,-4.9951695E6,1.4889965E6,3.0149506E7,6E0,2.00001E0,8.093712E2,1.011714E3,8E0,1.011714E3,7E0,-2.0073394E7,-3.4390806E5,1.45E2,-1.5008489E6,-1.82393E7,5.564427E2,2.00001E0,-3.6698785E6,5.0935056E5,-6.653596E6,-1.6582492E7,-5.6316285E6,3.2255353E5,3.3606416E7,-9.467957E6,-1.4843069E7,1.9700764E7,1.6320874E6,-1.8397727E4,3.9539342E6,1.3113657E7,2.3231242E6,-6.974711E3],"split_indices":[419,3,902,2,1,1,1342,2,0,0,2,1,0,2,987,1,3,3,0,1,0,0,0,2,1275,3,3,1,3,1,0,0,0,0,0,3,507,0,0,0,0,0,0,0,0,0,0,0,0,0,0,0,0],"split_type":[0,0,0,0,0,0,0,0,0,0,0,0,0,0,0,0,0,0,0,0,0,0,0,0,0,0,0,0,0,0,0,0,0,0,0,0,0,0,0,0,0,0,0,0,0,0,0,0,0,0,0,0,0],"sum_hessian":[1.34756E5,1.54E2,1.34602E5,1.4E2,1.4E1,9E0,1.34593E5,1.39E2,1E0,6E0,8E0,8E0,1E0,3E0,1.3459E5,1.11E2,2.8E1,5E0,3E0,6E0,2E0,2E0,1E0,5E0,1.34585E5,9.9E1,1.2E1,1.3E1,1.5E1,4E0,1E0,2E0,4E0,2E0,3E0,2.1E1,1.34564E5,5E1,4.9E1,9E0,3E0,9E0,4E0,1E1,5E0,1E0,3E0,3E0,1E0,1.6E1,5E0,1.76E2,1.34388E5],"tree_param":{"num_deleted":"0","num_feature":"1483","num_nodes":"53","size_leaf_vector":"1"}},{"base_weights":[3.2790588E3,-2.0574235E6,4.1326848E4,-1.6481325E6,-8.829786E6,-1.5175666E5,4.797129E5,-1.323446E6,-4.3237625E6,-8.009699E6,-2.1257488E7,1.3910556E7,-1.6079288E5,1.0975335E7,4.0287506E5,-7.968787E5,-1.9219849E6,-3.6168358E6,-5.69404E6,-3.978998E6,-9.596802E6,-7.442957E6,-2.120076E6,6.693073E6,6.4878684E7,5.1265665E6,-1.8212977E5,1.9470846E7,-1.3320571E6,8.307116E7,3.9463153E5,-4.937754E5,-1.7844659E6,-1.6018909E6,-2.5163042E6,-3.8767465E6,2.8778038E6,-7.810762E6,-4.2819415E6,2.938507E6,-4.599236E6,-5.9105025E6,-1.0392103E7,1.5059227E4,1.9370006E7,3.7396508E6,7.63157E7,-1.6114677E5,-9.125433E6,2.4002142E7,-1.132166E7,-9.052257E5,-3.3160505E6,4.785773E7,1.3233122E6,3.3250553E5,8.354282E6,-3.020744E5,-1.2759304E4,-6.7532656E5,-1.4413908E5,-7.7998594E5,-3.7480378E5,-6.69847E5,-1.5672662E6,-1.0850139E6,-2.7242452E6,3.46865E6,-1.9578029E6,-1.5218202E6,-3.4266858E6,-1.0437096E6,-3.3400448E6,-1.0020059E6,-1.9557961E6,-3.3344695E6,-5.8450906E5,6.735225E5,-3.17716E6,2.2491792E6,-8.770479E6,8.689752E5,4.237161E6,2.7198914E7,8.089469E6,2.2971582E6,-5.2567957E4,3.5651772E6,-8.1945265E6,2.888294E6,8.612757E6,4.545004E6,-1.1054958E7,-1.409928E5,-2.663705E6,4.234724E5,-2.6616299E4,2.4727378E7,3.923345E5],"categories":[],"categories_nodes":[],"categories_segments":[],"categories_sizes":[],"default_left":[0,0,0,1,0,0,0,0,0,0,1,0,0,0,0,0,0,0,1,0,0,0,0,0,0,0,1,0,1,0,1,0,0,0,1,0,0,0,0,0,0,0,0,0,0,0,0,0,0,0,1,0,0,0,0,0,0,0,0,0,0,0,0,0,0,0,0,0,0,0,0,0,0,0,0,0,0,0,0,0,0,0,0,0,0,0,0,0,0,0,0,0,0,0,0,0,0,0,0],"id":21,"left_children":[1,3,5,7,9,11,13,